{"learner":{"attributes":{"best_iteration":"99","best_score":"0.8544190578738013","scikit_learn":"{\"_estimator_type\": \"classifier\"}"},"feature_names":["MaxAbsEStateIndex","MaxEStateIndex","MinAbsEStateIndex","MinEStateIndex","qed","SPS","MolWt","HeavyAtomMolWt","ExactMolWt","NumValenceElectrons","NumRadicalElectrons","MaxPartialCharge","MinPartialCharge","MaxAbsPartialCharge","MinAbsPartialCharge","FpDensityMorgan1","FpDensityMorgan2","FpDensityMorgan3","BCUT2D_MWHI","BCUT2D_MWLOW","BCUT2D_CHGHI","BCUT2D_CHGLO","BCUT2D_LOGPHI","BCUT2D_LOGPLOW","BCUT2D_MRHI","BCUT2D_MRLOW","AvgIpc","BalabanJ","BertzCT","Chi0","Chi0n","Chi0v","Chi1","Chi1n","Chi1v","Chi2n","Chi2v","Chi3n","Chi3v","Chi4n","Chi4v","HallKierAlpha","Ipc","Kappa1","Kappa2","Kappa3","LabuteASA","PEOE_VSA1","PEOE_VSA10","PEOE_VSA11","PEOE_VSA12","PEOE_VSA13","PEOE_VSA14","PEOE_VSA2","PEOE_VSA3","PEOE_VSA4","PEOE_VSA5","PEOE_VSA6","PEOE_VSA7","PEOE_VSA8","PEOE_VSA9","SMR_VSA1","SMR_VSA10","SMR_VSA2","SMR_VSA3","SMR_VSA4","SMR_VSA5","SMR_VSA6","SMR_VSA7","SMR_VSA8","SMR_VSA9","SlogP_VSA1","SlogP_VSA10","SlogP_VSA11","SlogP_VSA12","SlogP_VSA2","SlogP_VSA3","SlogP_VSA4","SlogP_VSA5","SlogP_VSA6","SlogP_VSA7","SlogP_VSA8","SlogP_VSA9","TPSA","EState_VSA1","EState_VSA10","EState_VSA11","EState_VSA2","EState_VSA3","EState_VSA4","EState_VSA5","EState_VSA6","EState_VSA7","EState_VSA8","EState_VSA9","VSA_EState1","VSA_EState10","VSA_EState2","VSA_EState3","VSA_EState4","VSA_EState5","VSA_EState6","VSA_EState7","VSA_EState8","VSA_EState9","FractionCSP3","HeavyAtomCount","NHOHCount","NOCount","NumAliphaticCarbocycles","NumAliphaticHeterocycles","NumAliphaticRings","NumAromaticCarbocycles","NumAromaticHeterocycles","NumAromaticRings","NumHAcceptors","NumHDonors","NumHeteroatoms","NumRotatableBonds","NumSaturatedCarbocycles","NumSaturatedHeterocycles","NumSaturatedRings","RingCount","MolLogP","MolMR","fr_Al_COO","fr_Al_OH","fr_Al_OH_noTert","fr_ArN","fr_Ar_COO","fr_Ar_N","fr_Ar_NH","fr_Ar_OH","fr_COO","fr_COO2","fr_C_O","fr_C_O_noCOO","fr_C_S","fr_HOCCN","fr_Imine","fr_NH0","fr_NH1","fr_NH2","fr_N_O","fr_Ndealkylation1","fr_Ndealkylation2","fr_Nhpyrrole","fr_SH","fr_aldehyde","fr_alkyl_carbamate","fr_alkyl_halide","fr_allylic_oxid","fr_amide","fr_amidine","fr_aniline","fr_aryl_methyl","fr_azide","fr_azo","fr_barbitur","fr_benzene","fr_benzodiazepine","fr_bicyclic","fr_diazo","fr_dihydropyridine","fr_epoxide","fr_ester","fr_ether","fr_furan","fr_guanido","fr_halogen","fr_hdrzine","fr_hdrzone","fr_imidazole","fr_imide","fr_isocyan","fr_isothiocyan","fr_ketone","fr_ketone_Topliss","fr_lactam","fr_lactone","fr_methoxy","fr_morpholine","fr_nitrile","fr_nitro","fr_nitro_arom","fr_nitro_arom_nonortho","fr_nitroso","fr_oxazole","fr_oxime","fr_para_hydroxylation","fr_phenol","fr_phenol_noOrthoHbond","fr_phos_acid","fr_phos_ester","fr_piperdine","fr_piperzine","fr_priamide","fr_prisulfonamd","fr_pyridine","fr_quatN","fr_sulfide","fr_sulfonamd","fr_sulfone","fr_term_acetylene","fr_tetrazole","fr_thiazole","fr_thiocyan","fr_thiophene","fr_unbrch_alkane","fr_urea","cfmid_spectra","rassp_spectra","scarf_spectra","massformer_spectra","iceberg_spectra","mz","bin_index"],"feature_types":["float","float","float","float","float","float","float","float","float","int","int","float","float","float","float","float","float","float","float","float","float","float","float","float","float","float","float","float","float","float","float","float","float","float","float","float","float","float","float","float","float","float","float","float","float","float","float","float","float","float","float","float","float","float","float","float","float","float","float","float","float","float","float","float","float","float","float","float","float","float","float","float","float","float","float","float","float","float","float","float","float","float","float","float","float","float","float","float","float","float","float","float","float","float","float","float","float","float","float","float","float","float","float","float","float","float","int","int","int","int","int","int","int","int","int","int","int","float","float","float","float","int","int","float","float","int","int","int","int","int","int","int","int","int","int","int","int","int","int","int","int","int","int","int","int","int","int","int","int","int","int","int","int","int","int","int","int","int","int","int","int","int","int","int","int","int","int","int","int","int","int","int","int","int","int","int","int","int","int","int","int","int","int","int","int","int","int","int","int","int","int","int","int","int","int","int","int","int","int","int","int","int","int","int","int","int","int","int","int","int","int","float","int","float","float","float","float"],"gradient_booster":{"model":{"gbtree_model_param":{"num_parallel_tree":"1","num_trees":"100"},"iteration_indptr":[0,1,2,3,4,5,6,7,8,9,10,11,12,13,14,15,16,17,18,19,20,21,22,23,24,25,26,27,28,29,30,31,32,33,34,35,36,37,38,39,40,41,42,43,44,45,46,47,48,49,50,51,52,53,54,55,56,57,58,59,60,61,62,63,64,65,66,67,68,69,70,71,72,73,74,75,76,77,78,79,80,81,82,83,84,85,86,87,88,89,90,91,92,93,94,95,96,97,98,99,100],"tree_info":[0,0,0,0,0,0,0,0,0,0,0,0,0,0,0,0,0,0,0,0,0,0,0,0,0,0,0,0,0,0,0,0,0,0,0,0,0,0,0,0,0,0,0,0,0,0,0,0,0,0,0,0,0,0,0,0,0,0,0,0,0,0,0,0,0,0,0,0,0,0,0,0,0,0,0,0,0,0,0,0,0,0,0,0,0,0,0,0,0,0,0,0,0,0,0,0,0,0,0,0],"trees":[{"base_weights":[-8.627812E-4,3.6065945E-1,-2.9344076E-1,9.988458E-1,1.6062711E-1,1.03086166E-1,-6.8660486E-1,1.5043116E0,5.846337E-1,5.213498E-1,-3.5565753E-2,-9.673253E-3,7.2757083E-1,-1.5141563E-1,-9.731567E-1,1.7434456E0,1.4875235E-1,7.114226E-1,-5.2165914E-1,9.503407E-1,-1.3651219E-1,-4.067457E-1,5.081486E-1,5.089227E-1,-1.4966653E-1,4.69099E-1,9.12998E-1,2.7718693E-1,-9.1500473E-1,-1.1111779E0,-1.09951645E-1,1.875183E0,-1.7673284E-1,5.315373E-1,-1.0876799E0,3.8483083E-1,1.0620719E0,2.807148E-2,-1.3077277E0,1.4969356E0,-6.4056313E-1,-3.2129627E-1,3.9127606E-1,-6.230029E-1,1.4324522E-1,1.899373E-1,8.6501026E-1,1.452355E0,-2.646455E-1,-4.8755062E-1,1.5458204E-1,3.262207E-1,6.8643117E-1,1.0289053E0,7.328993E-1,8.3519137E-1,-1.3525906E0,-1.1833003E0,-6.5855086E-1,-1.2632759E0,-6.0487604E-1,2.2645906E-1,-3.9536253E-1,1.9623595E0,2.2094986E-1,2.97184E-1,-1.4101324E0,1.9233458E-1,1.2992226E0,-1.6146967E0,-1.5129197E-1,9.521141E-1,1.0006948E-1,1.1616501E0,1.8566339E-1,2.8885728E-1,-7.5916594E-1,-1.5356416E0,-5.628814E-2,1.8825351E0,-7.1727836E-1,-1.8695691E-1,-1.0145495E0,-1.6368328E-1,-7.5331795E-1,4.3997753E-1,-3.0687645E-1,-7.3028344E-1,3.0739218E-1,1.922188E-2,7.5342244E-1,5.1808726E-2,8.9967585E-1,7.244593E-1,1.2685395E0,1.9808438E0,-4.0064642E-1,-3.7033698E-1,8.0501996E-2,-6.2199193E-1,-1.81634E-1,3.4369388E-1,-7.44158E-2,1.1593594E-2,4.807466E-1,4.7738782E-1,8.060892E-1,5.728137E-1,1.0643989E0,6.543175E-1,1.0969728E0,1.8824345E0,-1.100045E0,-1.3955443E0,1.0643604E0,-1.2616308E0,-4.4316122E-1,-4.4580895E-1,-1.239205E0,-1.0668272E0,-1.4733869E0,4.3816775E-1,-6.7719996E-1,1.3250545E-1,8.0662435E-1,-5.065045E-1,5.367619E-1,2.0363732E-1,-1.7818151E-2,-2.5534501E-2,1.5289317E-1,-9.98636E-3,1.2208339E-1,-1.5082589E-1,1.256335E-1,6.553562E-2,-7.801299E-3,1.6085492E-1,6.309531E-2,-1.6273308E-1,1.160447E-1,1.29046E-1,-6.279532E-2,1.2335123E-1,2.2626815E-2,-1.4929532E-2,8.285602E-2,1.052137E-1,1.7639755E-1,-4.36108E-2,8.776665E-2,1.3537839E-3,9.6076116E-2,-1.02177344E-1,-2.1872607E-3,-1.0670008E-1,-1.7392117E-1,-4.061183E-2,6.11674E-2,2.0364034E-1,-2.9021038E-2,-8.996275E-2,4.62235E-2,-9.718641E-2,-5.7000853E-4,-5.058227E-2,-1.269087E-1,-6.286017E-2,1.7962655E-3,-1.182717E-1,-5.4901827E-2,-7.829662E-2,4.6037916E-2,9.5206825E-3,-8.006972E-2,-7.8450315E-2,8.106836E-2,3.8719606E-2,-5.3640533E-2,2.6849834E-2,-2.9724747E-2,9.2647746E-2,2.0699235E-2,1.7985692E-2,-2.9647896E-2,7.3559776E-2,1.091632E-1,9.019464E-2,5.008742E-2,1.16998784E-1,1.451237E-1,2.0361951E-1,1.1253037E-2,-6.986783E-2,-1.954023E-2,-7.917863E-2,-1.6475022E-2,-9.0094745E-2,1.2092629E-2,-9.543174E-2,-3.817932E-2,-2.5984861E-3,-4.6478663E-2,1.8661689E-2,5.3624954E-2,-3.5852384E-2,6.1463355E-3,-6.5584974E-3,5.551901E-2,6.679537E-2,3.4934815E-2,5.08776E-2,-6.766235E-2,8.82098E-2,6.147026E-2,6.1440505E-2,-1.1748766E-1,9.1994725E-2,1.1625258E-1,5.4948207E-2,8.596502E-2,8.635782E-2,1.18556015E-1,2.0363331E-1,-6.250965E-2,-1.1716678E-1,2.8905261E-2,-1.0485715E-1,-1.5907286E-1,1.9469833E-1,-1.477121E-1,4.7304027E-2,-1.2824623E-1,-5.9913363E-2,8.6603075E-2,-5.028955E-2,5.325083E-2,-1.2928332E-1,9.618876E-2,-7.3634766E-2,-1.2156788E-1,-4.4397805E-2,-1.515241E-1,6.889197E-2,-6.940538E-2,-8.37216E-2,-4.3946646E-2,-2.2165371E-2,2.9770587E-2,-3.0810395E-2,8.436782E-2,-6.42633E-2,8.802702E-4,6.795774E-2,-3.2266062E-3],"categories":[],"categories_nodes":[],"categories_segments":[],"categories_sizes":[],"default_left":[0,0,0,0,0,0,0,0,0,0,0,0,0,0,0,0,0,0,0,0,0,0,0,0,0,0,0,0,0,0,0,0,0,0,0,0,0,0,0,0,0,0,0,0,0,0,0,0,0,0,0,0,0,0,0,0,0,0,0,0,0,0,0,0,0,0,0,0,0,0,0,0,0,0,0,0,0,0,0,0,0,0,0,0,0,0,0,0,0,0,0,0,0,0,0,0,0,0,0,0,0,0,0,0,0,0,0,0,0,0,0,0,0,0,0,0,0,0,0,0,0,0,0,0,0,0,0,0,0,0,0,0,0,0,0,0,0,0,0,0,0,0,0,0,0,0,0,0,0,0,0,0,0,0,0,0,0,0,0,0,0,0,0,0,0,0,0,0,0,0,0,0,0,0,0,0,0,0,0,0,0,0,0,0,0,0,0,0,0,0,0,0,0,0,0,0,0,0,0,0,0,0,0,0,0,0,0,0,0,0,0,0,0,0,0,0,0,0,0,0,0,0,0,0,0,0,0,0,0,0,0,0,0,0,0,0,0,0,0,0,0,0,0,0,0,0,0,0,0,0,0,0,0,0,0],"id":0,"left_children":[1,3,5,7,9,11,13,15,17,19,21,23,25,27,29,31,33,35,37,39,41,43,45,47,49,51,53,55,57,59,61,63,65,67,69,71,73,75,77,79,81,83,85,87,89,91,93,95,97,99,101,103,105,107,109,111,113,115,117,119,121,123,125,127,129,131,133,135,137,139,141,143,145,147,149,151,153,155,157,159,161,163,165,167,169,171,173,175,177,179,181,183,185,187,189,191,193,195,197,199,201,203,205,207,209,211,213,215,217,219,221,223,225,227,229,231,233,235,237,239,241,243,245,247,249,251,253,-1,-1,-1,-1,-1,-1,-1,-1,-1,-1,-1,-1,-1,-1,-1,-1,-1,-1,-1,-1,-1,-1,-1,-1,-1,-1,-1,-1,-1,-1,-1,-1,-1,-1,-1,-1,-1,-1,-1,-1,-1,-1,-1,-1,-1,-1,-1,-1,-1,-1,-1,-1,-1,-1,-1,-1,-1,-1,-1,-1,-1,-1,-1,-1,-1,-1,-1,-1,-1,-1,-1,-1,-1,-1,-1,-1,-1,-1,-1,-1,-1,-1,-1,-1,-1,-1,-1,-1,-1,-1,-1,-1,-1,-1,-1,-1,-1,-1,-1,-1,-1,-1,-1,-1,-1,-1,-1,-1,-1,-1,-1,-1,-1,-1,-1,-1,-1,-1,-1,-1,-1,-1,-1,-1,-1,-1,-1,-1],"loss_changes":[7.446621E4,4.0199832E4,6.0662574E4,1.5732094E4,1.6968057E4,1.3641715E4,2.9963719E4,1.0970617E4,5.7945283E3,2.383727E4,3.1341865E4,1.1913831E4,1.4192539E3,2.2299602E4,1.5160492E4,7.2781406E3,2.4042341E3,4.243203E3,1.8358881E3,4.4459383E4,3.2518232E3,1.097746E4,7.154496E3,2.5458355E4,1.328405E4,3.8401978E2,3.585996E2,3.9691027E4,1.683877E3,8.446875E3,1.6846737E3,3.8816172E3,1.081562E3,1.00945276E3,5.9217773E2,3.0999458E3,1.5591367E3,5.1408875E2,4.9850317E2,3.2491672E4,2.2176948E3,1.6813301E3,2.942666E2,6.6126484E3,1.9712883E3,3.2653945E3,1.6825781E3,1.5392203E4,6.993075E2,2.517871E3,2.9446904E3,3.633645E2,1.2203003E2,1.6861328E2,1.9201929E2,6.589482E4,1.1586387E3,6.927871E2,1.546563E3,3.479E3,1.9127568E3,4.3878958E2,9.839171E2,4.0524766E3,8.4182056E2,4.9068317E2,1.3816321E2,3.371104E2,2.4358582E2,3.0712646E1,3.0036566E2,1.3094326E3,2.321768E3,1.0547676E3,7.862892E2,3.4790347E2,1.20604034E2,1.3738208E2,6.39247E1,1.0836039E4,1.2150369E3,8.409452E2,9.266416E2,1.528311E3,5.777573E2,2.0240881E2,1.1234093E2,4.9639688E3,4.6169934E2,1.7081779E3,4.1571826E2,1.2437085E3,1.6930273E2,8.7338184E2,1.3469336E2,1.2641641E3,2.1316504E2,1.2712523E3,1.7856834E2,3.3944258E3,8.2391724E2,1.126209E3,1.1873702E3,1.0343939E2,1.2282922E2,6.560071E1,4.4291504E1,5.6818405E1,1.3579688E2,1.1888013E2,2.271045E1,8.143867E3,1.1365879E3,7.374453E2,4.4432E2,3.9228906E2,2.3557027E2,5.128025E2,3.9890918E2,2.1433047E3,1.7547422E3,4.6793915E2,9.010283E2,4.0580615E2,4.6867737E1,5.950061E2,8.230127E1,0E0,0E0,0E0,0E0,0E0,0E0,0E0,0E0,0E0,0E0,0E0,0E0,0E0,0E0,0E0,0E0,0E0,0E0,0E0,0E0,0E0,0E0,0E0,0E0,0E0,0E0,0E0,0E0,0E0,0E0,0E0,0E0,0E0,0E0,0E0,0E0,0E0,0E0,0E0,0E0,0E0,0E0,0E0,0E0,0E0,0E0,0E0,0E0,0E0,0E0,0E0,0E0,0E0,0E0,0E0,0E0,0E0,0E0,0E0,0E0,0E0,0E0,0E0,0E0,0E0,0E0,0E0,0E0,0E0,0E0,0E0,0E0,0E0,0E0,0E0,0E0,0E0,0E0,0E0,0E0,0E0,0E0,0E0,0E0,0E0,0E0,0E0,0E0,0E0,0E0,0E0,0E0,0E0,0E0,0E0,0E0,0E0,0E0,0E0,0E0,0E0,0E0,0E0,0E0,0E0,0E0,0E0,0E0,0E0,0E0,0E0,0E0,0E0,0E0,0E0,0E0,0E0,0E0,0E0,0E0,0E0,0E0,0E0,0E0,0E0,0E0,0E0,0E0],"parents":[2147483647,0,0,1,1,2,2,3,3,4,4,5,5,6,6,7,7,8,8,9,9,10,10,11,11,12,12,13,13,14,14,15,15,16,16,17,17,18,18,19,19,20,20,21,21,22,22,23,23,24,24,25,25,26,26,27,27,28,28,29,29,30,30,31,31,32,32,33,33,34,34,35,35,36,36,37,37,38,38,39,39,40,40,41,41,42,42,43,43,44,44,45,45,46,46,47,47,48,48,49,49,50,50,51,51,52,52,53,53,54,54,55,55,56,56,57,57,58,58,59,59,60,60,61,61,62,62,63,63,64,64,65,65,66,66,67,67,68,68,69,69,70,70,71,71,72,72,73,73,74,74,75,75,76,76,77,77,78,78,79,79,80,80,81,81,82,82,83,83,84,84,85,85,86,86,87,87,88,88,89,89,90,90,91,91,92,92,93,93,94,94,95,95,96,96,97,97,98,98,99,99,100,100,101,101,102,102,103,103,104,104,105,105,106,106,107,107,108,108,109,109,110,110,111,111,112,112,113,113,114,114,115,115,116,116,117,117,118,118,119,119,120,120,121,121,122,122,123,123,124,124,125,125,126,126],"right_children":[2,4,6,8,10,12,14,16,18,20,22,24,26,28,30,32,34,36,38,40,42,44,46,48,50,52,54,56,58,60,62,64,66,68,70,72,74,76,78,80,82,84,86,88,90,92,94,96,98,100,102,104,106,108,110,112,114,116,118,120,122,124,126,128,130,132,134,136,138,140,142,144,146,148,150,152,154,156,158,160,162,164,166,168,170,172,174,176,178,180,182,184,186,188,190,192,194,196,198,200,202,204,206,208,210,212,214,216,218,220,222,224,226,228,230,232,234,236,238,240,242,244,246,248,250,252,254,-1,-1,-1,-1,-1,-1,-1,-1,-1,-1,-1,-1,-1,-1,-1,-1,-1,-1,-1,-1,-1,-1,-1,-1,-1,-1,-1,-1,-1,-1,-1,-1,-1,-1,-1,-1,-1,-1,-1,-1,-1,-1,-1,-1,-1,-1,-1,-1,-1,-1,-1,-1,-1,-1,-1,-1,-1,-1,-1,-1,-1,-1,-1,-1,-1,-1,-1,-1,-1,-1,-1,-1,-1,-1,-1,-1,-1,-1,-1,-1,-1,-1,-1,-1,-1,-1,-1,-1,-1,-1,-1,-1,-1,-1,-1,-1,-1,-1,-1,-1,-1,-1,-1,-1,-1,-1,-1,-1,-1,-1,-1,-1,-1,-1,-1,-1,-1,-1,-1,-1,-1,-1,-1,-1,-1,-1,-1,-1],"split_conditions":[1E0,4.305216E0,1.79E2,1E0,1E0,1E0,1E0,1E0,6.0169334E1,1E0,1E0,1E0,1E0,1E0,1E0,1E0,3.3240414E1,2E1,2.75E2,1E0,1E0,1E0,1E0,1E0,1E0,1E0,1.36E2,1E0,9.700127E2,1E0,2.32E2,1E0,4.054023E1,3.2136905E0,1.5357143E0,1.1616483E1,8.4090355E1,9.396752E0,1E0,1E0,1.97E2,2.27E2,2.44E2,1E0,1E0,1E0,1E0,1E0,1E0,1E0,1.36E2,8.143156E0,3E0,1E0,1E0,1E0,1E0,1E0,2.71E2,2.4E2,-2.6102767E0,1E0,1E0,1E0,3.0567049E1,1E0,6.104572E0,-2.4538386E0,3.7102454E0,2.4844166E1,1.8555902E1,2.2534392E0,1E0,1E0,1E0,1E0,1E0,2.6352026E1,9.883113E0,1E0,1E0,5.758116E2,6.648022E-1,1.738854E1,1.9062267E1,1.02E2,3E-1,3.811788E1,3.43E2,1.68E2,2.15E2,2.11E2,7.37637E0,1.914885E1,1E0,1E0,1.2084551E0,9.7023E1,1.02E2,1.4220789E2,1.51E2,1E0,8.67834E1,1E0,9.134199E0,2.2922531E1,1.55E2,1.671935E3,1.4876058E0,2.624393E0,9.558082E-1,1E0,1E0,2.33E2,6.1070217E1,-2.6773896E0,1E0,2.606339E0,2.8061519E0,6.786134E-1,-2.632184E0,-1.4482605E-1,2.3267825E0,6.640202E2,-3.051682E0,1E0,1.3327338E1,2.0363732E-1,-1.7818151E-2,-2.5534501E-2,1.5289317E-1,-9.98636E-3,1.2208339E-1,-1.5082589E-1,1.256335E-1,6.553562E-2,-7.801299E-3,1.6085492E-1,6.309531E-2,-1.6273308E-1,1.160447E-1,1.29046E-1,-6.279532E-2,1.2335123E-1,2.2626815E-2,-1.4929532E-2,8.285602E-2,1.052137E-1,1.7639755E-1,-4.36108E-2,8.776665E-2,1.3537839E-3,9.6076116E-2,-1.02177344E-1,-2.1872607E-3,-1.0670008E-1,-1.7392117E-1,-4.061183E-2,6.11674E-2,2.0364034E-1,-2.9021038E-2,-8.996275E-2,4.62235E-2,-9.718641E-2,-5.7000853E-4,-5.058227E-2,-1.269087E-1,-6.286017E-2,1.7962655E-3,-1.182717E-1,-5.4901827E-2,-7.829662E-2,4.6037916E-2,9.5206825E-3,-8.006972E-2,-7.8450315E-2,8.106836E-2,3.8719606E-2,-5.3640533E-2,2.6849834E-2,-2.9724747E-2,9.2647746E-2,2.0699235E-2,1.7985692E-2,-2.9647896E-2,7.3559776E-2,1.091632E-1,9.019464E-2,5.008742E-2,1.16998784E-1,1.451237E-1,2.0361951E-1,1.1253037E-2,-6.986783E-2,-1.954023E-2,-7.917863E-2,-1.6475022E-2,-9.0094745E-2,1.2092629E-2,-9.543174E-2,-3.817932E-2,-2.5984861E-3,-4.6478663E-2,1.8661689E-2,5.3624954E-2,-3.5852384E-2,6.1463355E-3,-6.5584974E-3,5.551901E-2,6.679537E-2,3.4934815E-2,5.08776E-2,-6.766235E-2,8.82098E-2,6.147026E-2,6.1440505E-2,-1.1748766E-1,9.1994725E-2,1.1625258E-1,5.4948207E-2,8.596502E-2,8.635782E-2,1.18556015E-1,2.0363331E-1,-6.250965E-2,-1.1716678E-1,2.8905261E-2,-1.0485715E-1,-1.5907286E-1,1.9469833E-1,-1.477121E-1,4.7304027E-2,-1.2824623E-1,-5.9913363E-2,8.6603075E-2,-5.028955E-2,5.325083E-2,-1.2928332E-1,9.618876E-2,-7.3634766E-2,-1.2156788E-1,-4.4397805E-2,-1.515241E-1,6.889197E-2,-6.940538E-2,-8.37216E-2,-4.3946646E-2,-2.2165371E-2,2.9770587E-2,-3.0810395E-2,8.436782E-2,-6.42633E-2,8.802702E-4,6.795774E-2,-3.2266062E-3],"split_indices":[152,64,215,212,212,210,212,213,47,213,213,212,213,213,210,210,48,5,215,211,211,211,211,213,213,211,215,211,28,213,215,211,85,26,16,62,58,45,214,210,215,215,215,214,210,214,214,211,211,211,215,33,122,212,214,210,178,210,215,215,23,214,214,214,84,125,24,23,45,71,87,99,211,167,213,214,214,60,19,214,214,28,4,29,29,215,105,98,215,215,215,215,44,18,210,214,99,124,215,46,215,211,124,214,53,85,215,28,99,99,99,214,214,215,75,23,214,20,20,4,23,25,22,28,104,213,0,0,0,0,0,0,0,0,0,0,0,0,0,0,0,0,0,0,0,0,0,0,0,0,0,0,0,0,0,0,0,0,0,0,0,0,0,0,0,0,0,0,0,0,0,0,0,0,0,0,0,0,0,0,0,0,0,0,0,0,0,0,0,0,0,0,0,0,0,0,0,0,0,0,0,0,0,0,0,0,0,0,0,0,0,0,0,0,0,0,0,0,0,0,0,0,0,0,0,0,0,0,0,0,0,0,0,0,0,0,0,0,0,0,0,0,0,0,0,0,0,0,0,0,0,0,0,0,0],"split_type":[0,0,0,0,0,0,0,0,0,0,0,0,0,0,0,0,0,0,0,0,0,0,0,0,0,0,0,0,0,0,0,0,0,0,0,0,0,0,0,0,0,0,0,0,0,0,0,0,0,0,0,0,0,0,0,0,0,0,0,0,0,0,0,0,0,0,0,0,0,0,0,0,0,0,0,0,0,0,0,0,0,0,0,0,0,0,0,0,0,0,0,0,0,0,0,0,0,0,0,0,0,0,0,0,0,0,0,0,0,0,0,0,0,0,0,0,0,0,0,0,0,0,0,0,0,0,0,0,0,0,0,0,0,0,0,0,0,0,0,0,0,0,0,0,0,0,0,0,0,0,0,0,0,0,0,0,0,0,0,0,0,0,0,0,0,0,0,0,0,0,0,0,0,0,0,0,0,0,0,0,0,0,0,0,0,0,0,0,0,0,0,0,0,0,0,0,0,0,0,0,0,0,0,0,0,0,0,0,0,0,0,0,0,0,0,0,0,0,0,0,0,0,0,0,0,0,0,0,0,0,0,0,0,0,0,0,0,0,0,0,0,0,0,0,0,0,0,0,0,0,0,0,0,0,0],"sum_hessian":[7.040121E5,3.149033E5,3.8910884E5,7.5146555E4,2.3975675E5,1.9372667E5,1.9538219E5,3.3842754E4,4.13038E4,8.446148E4,1.5529527E5,1.6409839E5,2.9628285E4,6.813338E4,1.272488E5,2.8767338E4,5.0754155E3,3.705747E4,4.2463325E3,5.1123215E4,3.3338266E4,9.229103E4,6.300424E4,3.488052E4,1.2921787E5,1.2379389E4,1.7248896E4,4.36397E4,2.4493688E4,1.0970677E5,1.7542027E4,2.6920457E4,1.8468802E3,3.876452E3,1.1989639E3,1.9189096E4,1.7868371E4,2.499945E3,1.7463876E3,3.8050223E4,1.307299E4,2.4693574E4,8.644691E3,6.624367E4,2.6047363E4,3.330735E4,2.9696889E4,1.571409E4,1.9166428E4,6.1224086E4,6.799378E4,7.4720938E3,4.907295E3,1.0488998E4,6.7598984E3,3.2509906E4,1.1129791E4,1.1966946E4,1.2526741E4,8.436096E4,2.5345812E4,8.0518325E3,9.490194E3,2.5572441E4,1.348016E3,1.3353201E3,5.1156027E2,2.6902588E3,1.1861931E3,7.6625323E2,4.3271066E2,6.4116104E3,1.2777485E4,1.6044709E4,1.8236627E3,1.8788201E3,6.21125E2,1.4769493E3,2.6943823E2,3.2406941E4,5.6432827E3,5.908997E3,7.163993E3,1.8094848E4,6.598725E3,8.081673E3,5.630187E2,5.9395426E4,6.8482446E3,2.1649078E4,4.3982837E3,2.7882947E4,5.4244033E3,2.2029506E4,7.6673813E3,1.2226788E4,3.487302E3,1.4673075E4,4.493353E3,4.253093E4,1.8693156E4,3.7239508E4,3.0754271E4,2.4618074E3,5.0102866E3,1.7900486E3,3.1172463E3,7.5980536E2,9.729192E3,5.5644585E3,1.1954401E3,2.1094684E4,1.1415224E4,1.0936278E4,1.935127E2,1.0820391E4,1.1465558E3,9.170397E3,3.3563442E3,4.3604234E4,4.0756727E4,1.642846E3,2.3702967E4,6.931743E3,1.1200894E3,8.479994E3,1.0101997E3,2.4717867E4,8.545748E2,9.8935645E2,3.5865952E2,9.351239E2,4.0019614E2,4.9424084E2,1.7319424E1,9.90681E2,1.6995778E3,8.089395E2,3.7725354E2,7.636041E2,2.649147E0,1.0666566E2,3.26045E2,4.619363E3,1.7922479E3,9.52026E3,3.257226E3,1.3580952E4,2.4637568E3,9.609656E2,8.626972E2,1.3341704E3,5.446496E2,4.574277E2,1.636973E2,4.5105475E2,1.0258947E3,1.773429E2,9.2095345E1,3.0263855E4,2.143085E3,4.888076E3,7.5520685E2,1.1069186E3,4.8020786E3,2.39108E3,4.772913E3,5.0821885E3,1.301266E4,2.124291E3,4.474434E3,1.3138269E2,7.95029E3,3.112248E2,2.5179391E2,5.7377547E4,2.0178752E3,6.2575103E3,5.907348E2,1.2110325E4,9.538754E3,3.3393247E3,1.058959E3,2.0388186E4,7.4947617E3,2.9297817E3,2.4946218E3,1.2277372E4,9.752135E3,4.990293E3,2.6770881E3,1.1874802E4,3.5198666E2,1.4202177E3,2.0670845E3,4.8090015E3,9.864073E3,1.760683E2,4.3172847E3,1.784108E4,2.468985E4,1.2063841E4,6.6293154E3,2.0511346E4,1.6728164E4,9.948921E3,2.0805352E4,2.1572803E3,3.0452695E2,2.0629607E3,2.947326E3,1.7437385E3,4.631009E1,2.2259832E3,8.91263E2,7.4341064E2,1.639472E1,3.9440051E3,5.785187E3,3.6885623E3,1.875896E3,3.348172E2,8.6062286E2,1.9875227E4,1.2194573E3,1.0855805E4,5.5941986E2,3.9418057E3,6.9944727E3,1.4397864E2,4.953405E1,1.2788382E2,1.0692507E4,1.0254697E3,1.2108601E2,8.66571E3,5.046875E2,3.2773196E3,7.902455E1,1.3544563E4,3.005967E4,1.593262E3,3.9163465E4,1.3456167E3,2.9722928E2,1.4164164E4,9.538804E3,2.204665E3,4.727078E3,3.556355E1,1.0845258E3,6.707565E3,1.7724293E3,8.072151E2,2.0298463E2],"tree_param":{"num_deleted":"0","num_feature":"217","num_nodes":"255","size_leaf_vector":"1"}},{"base_weights":[7.890827E-4,3.2653564E-1,-2.6309228E-1,8.987694E-1,1.4809045E-1,1.0218696E-1,-6.109788E-1,1.3536096E0,5.3054094E-1,4.7100762E-1,-2.6914462E-2,4.238104E-4,6.646253E-1,-1.2927836E-1,-8.6556077E-1,1.57454E0,1.3292411E-1,6.654221E-1,-2.8145248E-1,8.6160713E-1,-1.2507668E-1,-3.6347345E-1,4.63436E-1,4.587538E-1,-1.22633785E-1,4.3260396E-1,8.2858384E-1,2.6285186E-1,-8.249622E-1,-9.893918E-1,-9.287211E-2,1.6964967E0,-1.955427E-1,3.8556716E-1,-1.4358546E0,8.3164865E-1,1.1423043E-1,-4.0803966E-1,1.8573186E0,1.3540721E0,-5.523289E-1,-2.8848052E-1,3.434479E-1,-4.8403436E-1,4.570093E-1,1.8117054E-1,7.8107977E-1,1.3190129E0,-2.51395E-1,-4.187538E-1,1.4069706E-1,-6.178731E-3,4.9557018E-1,3.9227793E-1,8.6858314E-1,7.695419E-1,-1.2087536E0,-1.0615327E0,-5.375546E-1,-1.131462E0,-5.268799E-1,1.9605102E-1,-3.7303385E-1,1.7615443E0,-1.3189785E-1,2.4650991E-1,-1.3195139E0,9.45401E-2,1.1839643E0,-1.5383147E0,-9.62541E-1,1.0958186E0,5.602172E-1,3.9792275E-1,-5.701529E-1,1.4792468E-1,-1.0459735E0,3.6529884E-2,1.8633635E-1,1.7024503E0,-6.290414E-1,-5.685799E-2,-8.2707375E-1,-7.032082E-1,-1.4753833E-1,3.901977E-1,-2.3042604E-1,-1.4842948E-1,-7.859337E-1,5.442592E-1,-2.0169713E-1,6.286224E-2,7.982356E-1,6.5295976E-1,1.1452192E0,1.7963138E0,-3.9109296E-1,-3.580109E-1,9.277906E-2,-6.6599834E-1,-2.5035653E-1,2.5366598E-1,-1.6260879E-1,-7.444027E-2,7.088051E-1,4.40734E-1,8.7001777E-1,2.6067308E-1,6.8492395E-1,6.178012E-1,9.351296E-1,1.7044741E0,-9.564854E-1,-1.24969E0,1.0242234E0,-1.1756186E0,-4.702886E-1,-3.1181598E-1,-1.0792961E0,-8.514354E-1,-1.2601303E0,-5.8521664E-1,5.082284E-1,1.1174227E-1,7.168302E-1,-4.7594362E-1,4.7530746E-1,1.8454124E-1,1.8015357E-2,3.3136003E-2,-1.4424464E-1,-2.1538073E-2,8.289704E-2,-1.4263025E-1,1.1281961E-1,3.694723E-2,-4.4089086E-2,1.3427381E-1,-5.504151E-2,-1.5962395E-1,-6.6277295E-2,-4.1553598E-2,-1.4618523E-1,1.1990725E-1,2.3871345E-2,3.4606844E-2,1.10535085E-1,5.9730895E-2,-4.5476854E-2,8.157211E-3,-1.3058922E-1,-1.2601219E-2,7.9694584E-2,-1.2594739E-1,8.679932E-3,1.845439E-1,-3.0663494E-2,-7.975833E-2,4.5432497E-2,-8.358634E-2,5.7374425E-3,-3.8083732E-2,-1.0566359E-1,-4.9882725E-2,-1.0205598E-1,-3.926601E-3,-8.935791E-2,2.1250615E-2,5.270636E-2,-6.5815136E-2,3.6403015E-2,-3.4667373E-2,2.0664897E-2,-8.584058E-2,3.9004795E-2,3.8543046E-2,9.53655E-2,-3.6604207E-2,5.2055866E-2,-1.6584374E-2,2.501435E-2,5.1449616E-2,9.243953E-2,9.198894E-2,5.2346624E-2,1.0480056E-1,1.3252597E-1,1.8452632E-1,1.8765273E-3,-6.43672E-2,-2.1329578E-2,-7.4185014E-2,-1.6722396E-2,-7.035431E-2,1.2909658E-2,-8.31379E-2,-3.7272453E-2,-3.6892444E-2,7.1652713E-3,1.0883973E-2,4.3827597E-2,-4.133111E-2,1.76132E-4,-6.679186E-2,-1.7757731E-5,8.085343E-2,-6.105454E-2,3.4823015E-2,6.4629525E-2,6.920289E-2,1.0598512E-1,-8.522006E-2,3.6963236E-2,9.085618E-3,8.87104E-2,5.3721238E-2,9.7199164E-2,1.0266312E-1,7.770934E-2,1.8453835E-1,-6.1184596E-2,-4.37491E-2,-1.1518184E-1,-8.314954E-2,-1.4003356E-1,1.7715251E-1,-1.3363989E-1,-8.988857E-2,-1.3180336E-1,-6.8393305E-2,6.238159E-2,2.0906383E-2,-4.0369935E-2,3.2745816E-2,-1.1696229E-1,-1.0778653E-1,-6.447894E-2,-1.281091E-1,3.0963188E-3,-3.9542533E-2,-7.903451E-2,8.759892E-2,-4.5787436E-3,-4.8951298E-2,2.0041255E-2,5.9042234E-2,9.150723E-2,-6.0129482E-2,-2.751954E-4,6.1945915E-2,-1.0283483E-2],"categories":[],"categories_nodes":[],"categories_segments":[],"categories_sizes":[],"default_left":[0,0,0,0,0,0,0,0,0,0,0,0,0,0,0,0,0,0,0,0,0,0,0,0,0,0,0,0,0,0,0,0,0,0,0,0,0,0,0,0,0,0,0,0,0,0,0,0,0,0,0,0,0,0,0,0,0,0,0,0,0,0,0,0,0,0,0,0,0,0,0,0,0,0,0,0,0,0,0,0,0,0,0,0,0,0,0,0,0,0,0,0,0,0,0,0,0,0,0,0,0,0,0,0,0,0,0,0,0,0,0,0,0,0,0,0,0,0,0,0,0,0,0,0,0,0,0,0,0,0,0,0,0,0,0,0,0,0,0,0,0,0,0,0,0,0,0,0,0,0,0,0,0,0,0,0,0,0,0,0,0,0,0,0,0,0,0,0,0,0,0,0,0,0,0,0,0,0,0,0,0,0,0,0,0,0,0,0,0,0,0,0,0,0,0,0,0,0,0,0,0,0,0,0,0,0,0,0,0,0,0,0,0,0,0,0,0,0,0,0,0,0,0,0,0,0,0,0,0,0,0,0,0,0,0,0,0,0,0,0,0,0,0,0,0,0,0,0,0,0,0],"id":1,"left_children":[1,3,5,7,9,11,13,15,17,19,21,23,25,27,29,31,33,35,37,39,41,43,45,47,49,51,53,55,57,59,61,63,65,67,69,71,73,75,77,79,81,83,85,87,89,91,93,95,97,99,101,103,105,107,109,111,113,115,117,119,121,123,125,127,129,131,133,135,137,139,141,143,145,147,149,151,153,-1,-1,155,157,159,161,163,165,167,169,171,173,175,177,179,181,183,185,187,189,191,193,195,197,199,201,203,205,207,209,211,213,215,217,219,221,223,225,227,229,231,233,235,237,239,241,243,245,247,249,-1,-1,-1,-1,-1,-1,-1,-1,-1,-1,-1,-1,-1,-1,-1,-1,-1,-1,-1,-1,-1,-1,-1,-1,-1,-1,-1,-1,-1,-1,-1,-1,-1,-1,-1,-1,-1,-1,-1,-1,-1,-1,-1,-1,-1,-1,-1,-1,-1,-1,-1,-1,-1,-1,-1,-1,-1,-1,-1,-1,-1,-1,-1,-1,-1,-1,-1,-1,-1,-1,-1,-1,-1,-1,-1,-1,-1,-1,-1,-1,-1,-1,-1,-1,-1,-1,-1,-1,-1,-1,-1,-1,-1,-1,-1,-1,-1,-1,-1,-1,-1,-1,-1,-1,-1,-1,-1,-1,-1,-1,-1,-1,-1,-1,-1,-1,-1,-1,-1,-1,-1,-1,-1,-1],"loss_changes":[6.038292E4,3.2101918E4,4.9316355E4,1.2515E4,1.3543221E4,1.0835371E4,2.437604E4,9.015887E3,4.5237812E3,1.9611617E4,2.5650055E4,9.041719E3,1.1026768E3,1.87505E4,1.2442891E4,6.1117656E3,2.0326654E3,3.2449404E3,1.5947454E3,3.543435E4,2.5531365E3,9.117291E3,5.6715312E3,2.0730006E4,9.854883E3,3.3192993E2,2.958789E2,3.2778664E4,1.6834844E3,7.3636562E3,1.4542925E3,3.1503047E3,9.0816113E2,1.025945E3,3.1538696E1,1.949957E3,1.5942284E3,1.9713816E3,1.6079102E0,2.6076984E4,1.7895105E3,1.4450103E3,2.315365E2,8.141633E3,6.788921E2,2.4453496E3,1.3870898E3,1.2526127E4,6.8218994E2,2.476416E3,2.2921748E3,7.3784485E1,2.1495996E2,5.474379E1,2.5858984E2,5.277204E4,1.0317812E3,9.15459E2,1.3678352E3,3.0872031E3,1.5912456E3,3.8820422E2,7.967627E2,3.3912422E3,5.5447095E2,3.534939E2,1.3806732E2,4.7709595E2,3.2631213E2,2.7373169E1,3.482106E1,1.2196738E3,1.5665171E3,9.873794E2,1.1540779E3,5.2846826E2,6.2617236E2,0E0,0E0,9.223531E3,1.0307219E3,4.175945E2,8.6550244E2,4.057041E2,1.4907147E3,1.9372021E2,1.6596545E2,2.6791003E3,3.6060059E3,6.773386E2,1.6450085E2,1.2041234E3,1.9195508E2,7.6023535E2,1.3275879E2,1.0437578E3,1.5016101E2,1.0391394E3,1.2737738E2,1.1682656E3,1.3512002E3,1.3030784E3,7.4813904E2,6.081538E1,1.83237E1,1.7388489E2,4.3809143E1,1.2068843E2,5.2996124E1,9.228943E1,1.762168E2,6.925535E3,1.1638633E3,6.9428906E2,3.642531E2,4.4648438E2,5.153856E2,3.7835303E2,4.1890063E2,1.2619746E3,1.5898281E3,9.702295E2,2.866368E2,4.061909E2,2.9794434E1,4.8255432E2,8.244852E1,0E0,0E0,0E0,0E0,0E0,0E0,0E0,0E0,0E0,0E0,0E0,0E0,0E0,0E0,0E0,0E0,0E0,0E0,0E0,0E0,0E0,0E0,0E0,0E0,0E0,0E0,0E0,0E0,0E0,0E0,0E0,0E0,0E0,0E0,0E0,0E0,0E0,0E0,0E0,0E0,0E0,0E0,0E0,0E0,0E0,0E0,0E0,0E0,0E0,0E0,0E0,0E0,0E0,0E0,0E0,0E0,0E0,0E0,0E0,0E0,0E0,0E0,0E0,0E0,0E0,0E0,0E0,0E0,0E0,0E0,0E0,0E0,0E0,0E0,0E0,0E0,0E0,0E0,0E0,0E0,0E0,0E0,0E0,0E0,0E0,0E0,0E0,0E0,0E0,0E0,0E0,0E0,0E0,0E0,0E0,0E0,0E0,0E0,0E0,0E0,0E0,0E0,0E0,0E0,0E0,0E0,0E0,0E0,0E0,0E0,0E0,0E0,0E0,0E0,0E0,0E0,0E0,0E0,0E0,0E0,0E0,0E0,0E0,0E0],"parents":[2147483647,0,0,1,1,2,2,3,3,4,4,5,5,6,6,7,7,8,8,9,9,10,10,11,11,12,12,13,13,14,14,15,15,16,16,17,17,18,18,19,19,20,20,21,21,22,22,23,23,24,24,25,25,26,26,27,27,28,28,29,29,30,30,31,31,32,32,33,33,34,34,35,35,36,36,37,37,38,38,39,39,40,40,41,41,42,42,43,43,44,44,45,45,46,46,47,47,48,48,49,49,50,50,51,51,52,52,53,53,54,54,55,55,56,56,57,57,58,58,59,59,60,60,61,61,62,62,63,63,64,64,65,65,66,66,67,67,68,68,69,69,70,70,71,71,72,72,73,73,74,74,75,75,76,76,79,79,80,80,81,81,82,82,83,83,84,84,85,85,86,86,87,87,88,88,89,89,90,90,91,91,92,92,93,93,94,94,95,95,96,96,97,97,98,98,99,99,100,100,101,101,102,102,103,103,104,104,105,105,106,106,107,107,108,108,109,109,110,110,111,111,112,112,113,113,114,114,115,115,116,116,117,117,118,118,119,119,120,120,121,121,122,122,123,123,124,124,125,125,126,126],"right_children":[2,4,6,8,10,12,14,16,18,20,22,24,26,28,30,32,34,36,38,40,42,44,46,48,50,52,54,56,58,60,62,64,66,68,70,72,74,76,78,80,82,84,86,88,90,92,94,96,98,100,102,104,106,108,110,112,114,116,118,120,122,124,126,128,130,132,134,136,138,140,142,144,146,148,150,152,154,-1,-1,156,158,160,162,164,166,168,170,172,174,176,178,180,182,184,186,188,190,192,194,196,198,200,202,204,206,208,210,212,214,216,218,220,222,224,226,228,230,232,234,236,238,240,242,244,246,248,250,-1,-1,-1,-1,-1,-1,-1,-1,-1,-1,-1,-1,-1,-1,-1,-1,-1,-1,-1,-1,-1,-1,-1,-1,-1,-1,-1,-1,-1,-1,-1,-1,-1,-1,-1,-1,-1,-1,-1,-1,-1,-1,-1,-1,-1,-1,-1,-1,-1,-1,-1,-1,-1,-1,-1,-1,-1,-1,-1,-1,-1,-1,-1,-1,-1,-1,-1,-1,-1,-1,-1,-1,-1,-1,-1,-1,-1,-1,-1,-1,-1,-1,-1,-1,-1,-1,-1,-1,-1,-1,-1,-1,-1,-1,-1,-1,-1,-1,-1,-1,-1,-1,-1,-1,-1,-1,-1,-1,-1,-1,-1,-1,-1,-1,-1,-1,-1,-1,-1,-1,-1,-1,-1,-1],"split_conditions":[1E0,4.305216E0,1.77E2,1E0,1E0,1E0,1E0,1E0,1.3941082E3,1E0,1E0,1E0,1E0,1E0,1E0,1E0,4.054023E1,1.0050235E1,2.8808515E0,1E0,1E0,1E0,1E0,1E0,1E0,1E0,1E0,1E0,3.76228E2,1E0,2.35E2,1E0,4.054023E1,3.2655551E0,2.180585E1,3.0578642E0,3.5701823E0,2.6E2,1.08E2,1E0,1.78E2,1.738854E1,2.39E2,1.82E2,2.93E2,1E0,1E0,1E0,1E0,6.6079956E2,1.5E2,1E0,1E0,1E0,7.356501E-1,1E0,1E0,1E0,2.68E2,2.1E2,2.6250148E0,1E0,1E0,1E0,4.054023E1,3.6620373E1,6.104572E0,6E0,4.866141E1,1E0,1.8E2,1E0,1E0,3.610128E1,2.8597273E1,1E0,1E0,3.6529884E-2,1.8633635E-1,1E0,1E0,5.2773303E2,6.648022E-1,1.94E2,2.69E2,1E0,1.8420829E0,1E0,4E0,1E0,1.8774027E1,8.671639E0,9.14152E1,2.2336211E0,1E0,1E0,1.2084551E0,1.36E2,1.02E2,1E0,1E0,1E0,8.99652E1,1.1913271E2,1.2156763E1,5.647177E0,3.15047E5,1.0768093E1,1.0679913E0,1E0,1.36E2,1E0,2.58E2,2.18E2,6.1070217E1,2.09E2,1.5904007E1,9.853836E0,2.926502E0,7.3455426E2,3E0,2.12E2,4.9839787E0,4.8999095E0,4E0,1E0,1.3327338E1,1.8454124E-1,1.8015357E-2,3.3136003E-2,-1.4424464E-1,-2.1538073E-2,8.289704E-2,-1.4263025E-1,1.1281961E-1,3.694723E-2,-4.4089086E-2,1.3427381E-1,-5.504151E-2,-1.5962395E-1,-6.6277295E-2,-4.1553598E-2,-1.4618523E-1,1.1990725E-1,2.3871345E-2,3.4606844E-2,1.10535085E-1,5.9730895E-2,-4.5476854E-2,8.157211E-3,-1.3058922E-1,-1.2601219E-2,7.9694584E-2,-1.2594739E-1,8.679932E-3,1.845439E-1,-3.0663494E-2,-7.975833E-2,4.5432497E-2,-8.358634E-2,5.7374425E-3,-3.8083732E-2,-1.0566359E-1,-4.9882725E-2,-1.0205598E-1,-3.926601E-3,-8.935791E-2,2.1250615E-2,5.270636E-2,-6.5815136E-2,3.6403015E-2,-3.4667373E-2,2.0664897E-2,-8.584058E-2,3.9004795E-2,3.8543046E-2,9.53655E-2,-3.6604207E-2,5.2055866E-2,-1.6584374E-2,2.501435E-2,5.1449616E-2,9.243953E-2,9.198894E-2,5.2346624E-2,1.0480056E-1,1.3252597E-1,1.8452632E-1,1.8765273E-3,-6.43672E-2,-2.1329578E-2,-7.4185014E-2,-1.6722396E-2,-7.035431E-2,1.2909658E-2,-8.31379E-2,-3.7272453E-2,-3.6892444E-2,7.1652713E-3,1.0883973E-2,4.3827597E-2,-4.133111E-2,1.76132E-4,-6.679186E-2,-1.7757731E-5,8.085343E-2,-6.105454E-2,3.4823015E-2,6.4629525E-2,6.920289E-2,1.0598512E-1,-8.522006E-2,3.6963236E-2,9.085618E-3,8.87104E-2,5.3721238E-2,9.7199164E-2,1.0266312E-1,7.770934E-2,1.8453835E-1,-6.1184596E-2,-4.37491E-2,-1.1518184E-1,-8.314954E-2,-1.4003356E-1,1.7715251E-1,-1.3363989E-1,-8.988857E-2,-1.3180336E-1,-6.8393305E-2,6.238159E-2,2.0906383E-2,-4.0369935E-2,3.2745816E-2,-1.1696229E-1,-1.0778653E-1,-6.447894E-2,-1.281091E-1,3.0963188E-3,-3.9542533E-2,-7.903451E-2,8.759892E-2,-4.5787436E-3,-4.8951298E-2,2.0041255E-2,5.9042234E-2,9.150723E-2,-6.0129482E-2,-2.751954E-4,6.1945915E-2,-1.0283483E-2],"split_indices":[152,64,215,212,212,210,212,213,28,213,213,212,213,213,210,210,85,19,20,211,211,214,211,213,213,212,212,211,7,213,215,214,85,26,81,45,77,215,215,210,215,29,215,215,215,214,214,211,211,28,215,214,214,211,99,210,178,211,215,215,20,214,214,211,85,84,24,118,79,214,215,133,125,58,62,214,214,0,0,214,214,28,4,215,215,154,27,211,116,210,85,33,124,45,210,214,99,9,215,211,211,211,124,46,98,81,42,32,99,214,215,214,215,215,75,215,81,19,45,28,126,215,64,71,122,213,0,0,0,0,0,0,0,0,0,0,0,0,0,0,0,0,0,0,0,0,0,0,0,0,0,0,0,0,0,0,0,0,0,0,0,0,0,0,0,0,0,0,0,0,0,0,0,0,0,0,0,0,0,0,0,0,0,0,0,0,0,0,0,0,0,0,0,0,0,0,0,0,0,0,0,0,0,0,0,0,0,0,0,0,0,0,0,0,0,0,0,0,0,0,0,0,0,0,0,0,0,0,0,0,0,0,0,0,0,0,0,0,0,0,0,0,0,0,0,0,0,0,0,0,0],"split_type":[0,0,0,0,0,0,0,0,0,0,0,0,0,0,0,0,0,0,0,0,0,0,0,0,0,0,0,0,0,0,0,0,0,0,0,0,0,0,0,0,0,0,0,0,0,0,0,0,0,0,0,0,0,0,0,0,0,0,0,0,0,0,0,0,0,0,0,0,0,0,0,0,0,0,0,0,0,0,0,0,0,0,0,0,0,0,0,0,0,0,0,0,0,0,0,0,0,0,0,0,0,0,0,0,0,0,0,0,0,0,0,0,0,0,0,0,0,0,0,0,0,0,0,0,0,0,0,0,0,0,0,0,0,0,0,0,0,0,0,0,0,0,0,0,0,0,0,0,0,0,0,0,0,0,0,0,0,0,0,0,0,0,0,0,0,0,0,0,0,0,0,0,0,0,0,0,0,0,0,0,0,0,0,0,0,0,0,0,0,0,0,0,0,0,0,0,0,0,0,0,0,0,0,0,0,0,0,0,0,0,0,0,0,0,0,0,0,0,0,0,0,0,0,0,0,0,0,0,0,0,0,0,0,0,0,0,0,0,0,0,0,0,0,0,0,0,0,0,0,0,0],"sum_hessian":[7.024624E5,3.1437894E5,3.880834E5,7.472965E4,2.396493E5,1.893101E5,1.9877333E5,3.3430516E4,4.129913E4,8.422847E4,1.5542083E5,1.6030734E5,2.9002742E4,6.873025E4,1.3004308E5,2.8306734E4,5.123783E3,3.5416426E4,5.8827E3,5.088432E4,3.334415E4,9.216357E4,6.3257258E4,3.39298E4,1.2637755E5,1.2011821E4,1.6990922E4,4.395548E4,2.477477E4,1.1208051E5,1.7962574E4,2.6482223E4,1.8245121E3,4.4143804E3,7.0940283E2,2.7209623E4,8.206805E3,5.555506E3,3.271946E2,3.773985E4,1.3144468E4,2.4722598E4,8.621549E3,8.0356836E4,1.1806734E4,3.349552E4,2.9761738E4,1.5342504E4,1.8587297E4,5.948475E4,6.68928E4,1.5076324E3,1.0504188E4,1.4286849E3,1.5562236E4,3.2698113E4,1.1257368E4,1.35862705E4,1.11885E4,8.57406E4,2.6339902E4,8.843311E3,9.119264E3,2.557252E4,9.097032E2,1.3106149E3,5.138973E2,3.236769E3,1.1776113E3,5.794637E2,1.2993913E2,1.3786179E4,1.3423443E4,5.8024116E3,2.4043936E3,2.969286E3,2.5862197E3,1.8160217E0,3.2537857E2,3.2100896E4,5.6389556E3,4.6896455E3,8.454822E3,6.268709E3,1.8453889E4,7.9727046E3,6.488445E2,3.8055555E4,4.2301285E4,1.042608E4,1.3806542E3,2.8108543E4,5.3869756E3,2.2019807E4,7.7419326E3,1.199463E4,3.3478743E3,1.4191172E4,4.3961245E3,2.409785E4,3.5386902E4,4.873962E4,1.815317E4,1.3778746E3,1.2975784E2,9.166193E3,1.3379949E3,9.881078E2,4.4057718E2,3.2678447E3,1.2294392E4,2.1209598E4,1.1488517E4,1.105557E4,2.0179729E2,1.1387057E4,2.1992139E3,7.8998545E3,3.2886455E3,2.6998287E4,5.8742312E4,2.4935457E4,1.4044452E3,7.613236E3,1.2300748E3,8.133492E3,9.8577185E2,2.4284283E4,1.2882361E3,6.7322375E2,2.3647946E2,7.3166534E2,5.7894946E2,4.9321396E2,2.0683325E1,2.1390388E3,1.0977302E3,1.079262E3,9.834937E1,5.41962E2,3.7501755E1,6.37568E1,6.6182335E1,1.2303234E4,1.4829446E3,9.639829E3,3.783614E3,4.7032437E3,1.0991678E3,1.2759355E3,1.1284579E3,2.0891257E3,8.8016016E2,2.1758928E3,4.1032687E2,2.9968193E4,2.1327031E3,4.8802505E3,7.587048E2,5.9812317E2,4.0915225E3,2.873826E3,5.5809966E3,3.8161646E3,2.4525447E3,1.6116953E4,2.336936E3,3.4711953E3,4.5015093E3,3.7721506E2,2.7162943E2,2.4421055E4,1.36345E4,3.9846223E4,2.4550603E3,7.514605E3,2.911475E3,1.1255325E3,2.551217E2,1.2654825E4,1.5453718E4,1.6611421E3,3.7258335E3,7.1888887E3,1.4830917E4,5.036237E3,2.7056956E3,1.1673104E4,3.215262E2,1.3809103E3,1.966964E3,4.7098237E3,9.481348E3,1.9014455E2,4.20598E3,1.5406353E4,8.691498E3,2.586338E4,9.5235205E3,2.7314568E4,2.1425055E4,7.187519E3,1.096565E4,1.5146196E2,1.2264126E3,1.2135872E2,8.399118E0,6.325202E3,2.8409917E3,6.9533527E2,6.4265967E2,8.68998E1,9.01208E2,1.1260564E2,3.2797156E2,2.6662314E3,6.0161316E2,7.779266E3,4.5151255E3,1.999372E4,1.2158767E3,3.1433088E3,8.345207E3,2.9312905E3,8.12428E3,1.5365413E2,4.814315E1,3.873977E3,7.5130796E3,1.8405598E3,3.5865408E2,1.1841946E3,6.7156597E3,1.9810457E2,3.090541E3,1.2878453E4,1.4119834E4,5.780389E4,9.3842365E2,1.2954968E4,1.198049E4,8.434158E2,5.6102936E2,9.7730273E2,6.635933E3,7.5598346E2,4.7409146E2,6.4296895E3,1.703803E3,7.889222E2,1.9684969E2],"tree_param":{"num_deleted":"0","num_feature":"217","num_nodes":"251","size_leaf_vector":"1"}},{"base_weights":[1.8022758E-3,7.019738E-1,-9.8949306E-2,1.1799186E0,3.662128E-1,1.7231253E-1,-3.8583368E-1,1.4054302E0,4.1326948E-2,6.3240457E-1,-5.883523E-2,9.144602E-2,6.7273813E-1,6.296051E-2,-6.567637E-1,1.5345094E0,-2.6500407E-1,2.2203068E-1,-1.3329778E0,8.663359E-1,3.050038E-1,1.9139852E-1,-6.631436E-1,4.7019574E-1,-3.4355156E-2,4.6476963E-1,8.2822496E-1,4.0412903E-1,-5.9455466E-1,-7.404552E-1,3.6259753E-1,1.6344379E0,-4.5895376E-4,8.625735E-3,-1.2624736E0,-2.0383714E-1,7.587433E-1,7.3791397E-1,-1.3719801E0,1.0089573E0,2.8493094E-1,-4.5679645E-3,6.858647E-1,4.6896306E-1,-1.6232367E-1,-7.7274764E-1,1.6370965E0,1.1463214E0,-1.0830705E-1,-3.066601E-1,2.311186E-1,3.8037056E-1,8.4457874E-1,7.400086E-1,1.1197484E0,8.6805964E-1,-9.65352E-1,-4.4526276E-1,-9.574259E-1,-8.882811E-1,-2.9291856E-1,1.579468E-1,6.8681127E-1,1.702941E-1,-1.6795382E-1,-4.2830148E-1,1.005628E0,3.1014323E-1,-7.4588543E-1,4.027031E-1,-1.3837595E0,3.5615996E-2,-7.514457E-1,4.802316E-1,1.4007422E0,1.3725504E0,-1.0162797E-1,-9.8831016E-1,-1.5104473E0,1.9401826E-1,1.1149919E0,1.7269583E0,5.9594486E-2,-2.2714469E-1,6.8955344E-1,2.2968148E-1,1.0878577E0,8.61089E-1,1.4601038E-1,-3.0614045E-1,1.0257223E0,-1.8767531E-1,-1.0887176E0,1.7204836E-1,-7.53962E-1,1.6360873E0,-2.2082439E-1,-2.3123471E-1,2.0972657E-1,-4.4193485E-1,-2.5052099E-2,1.6077976E-1,8.1160307E-1,2.3837866E-1,5.860703E-1,9.593533E-1,7.289041E-1,5.9115833E-1,8.7533146E-1,1.2500341E0,1.0463175E0,1.5568534E0,-8.498634E-1,-6.2274325E-1,-1.1870887E0,-2.0429657E-1,-7.835125E-1,-1.0833865E0,-4.1529357E-1,-9.7167057E-1,-2.7102396E-1,-4.9241257E-1,-4.126426E-2,-1.5016425E-2,4.9150681E-1,5.1871353E-1,8.928751E-1,2.4479365E-2,-1.106565E-1,4.2587854E-2,-7.156268E-2,4.425471E-2,1.6650142E-1,-5.8649946E-3,8.612204E-2,-3.5223853E-2,-1.3068278E-1,-6.930205E-2,9.666472E-2,-1.5670116E-1,-2.6766751E-2,-2.6652092E-2,5.7616647E-2,3.416813E-2,-1.0732265E-1,-7.810738E-2,5.9622526E-2,1.5485148E-1,5.907004E-2,6.0880966E-2,1.6295347E-1,-5.932804E-2,-1.3919307E-1,-1.5385881E-1,-2.798274E-2,1.02433495E-1,-4.331671E-2,1.1995118E-1,5.0928045E-2,1.8241355E-1,9.827458E-2,-4.629368E-2,7.624616E-2,1.3434059E-2,-6.415571E-2,8.599216E-2,1.5833313E-2,5.548311E-2,-6.4623944E-2,-2.0044555E-3,1.4200749E-1,1.3563208E-1,5.3792752E-2,-3.1302632E-3,7.00511E-2,-5.597064E-2,2.7467022E-2,-1.15518E-2,1.4871484E-1,-5.537778E-2,1.0499924E-1,-1.1698657E-1,5.677671E-2,-1.1301388E-1,7.243764E-2,1.7029296E-1,-9.631235E-3,-6.42397E-2,-8.134796E-3,-6.180265E-2,-8.568972E-3,-7.23074E-2,2.4002688E-2,-6.469971E-2,-1.6751274E-2,-2.00929E-2,2.8846709E-2,5.279662E-4,3.676411E-2,7.3339164E-2,9.805359E-2,6.3030734E-3,4.3004196E-2,4.202568E-2,8.717338E-2,-2.8437266E-2,9.706646E-2,5.117146E-2,8.558912E-2,2.4850365E-2,7.091176E-2,1.0155413E-1,7.442003E-2,1.363778E-1,1.11908995E-1,1.1070124E-1,8.64399E-2,1.7029814E-1,-3.597064E-2,-9.40668E-2,3.141735E-2,-3.6364507E-2,-1.0116994E-1,-1.2265573E-1,-5.8434475E-3,-6.216788E-2,-9.164904E-3,-1.00818686E-1,-4.9422257E-2,-1.1454059E-1,-4.5082282E-2,-5.0199807E-2,9.287249E-2,-1.0019871E-1,3.1531554E-2,1.3800712E-2,-4.5689847E-2,7.3375374E-2,-5.4071844E-2,-2.4105934E-2,3.1046692E-2,8.953764E-3,-7.2502896E-2,5.913047E-2,-1.5609333E-2,4.958903E-2,1.571678E-1,7.8961335E-2,1.1391238E-1],"categories":[],"categories_nodes":[],"categories_segments":[],"categories_sizes":[],"default_left":[0,0,0,0,0,0,0,0,0,0,0,0,0,0,0,0,0,0,0,0,0,0,0,0,0,0,0,0,0,0,0,0,0,0,0,0,0,0,0,0,0,0,0,0,0,0,0,0,0,0,0,0,0,0,0,0,0,0,0,0,0,0,0,0,0,0,0,0,0,0,0,0,0,0,0,0,0,0,0,0,0,0,0,0,0,0,0,0,0,0,0,0,0,0,0,0,0,0,0,0,0,0,0,0,0,0,0,0,0,0,0,0,0,0,0,0,0,0,0,0,0,0,0,0,0,0,0,0,0,0,0,0,0,0,0,0,0,0,0,0,0,0,0,0,0,0,0,0,0,0,0,0,0,0,0,0,0,0,0,0,0,0,0,0,0,0,0,0,0,0,0,0,0,0,0,0,0,0,0,0,0,0,0,0,0,0,0,0,0,0,0,0,0,0,0,0,0,0,0,0,0,0,0,0,0,0,0,0,0,0,0,0,0,0,0,0,0,0,0,0,0,0,0,0,0,0,0,0,0,0,0,0,0,0,0,0,0,0,0,0,0,0,0,0,0,0,0,0,0],"id":2,"left_children":[1,3,5,7,9,11,13,15,17,19,21,23,25,27,29,31,33,35,37,39,41,43,45,47,49,51,53,55,57,59,61,63,65,67,69,71,73,75,77,79,81,83,85,87,89,91,93,95,97,99,101,103,105,107,109,111,113,115,117,119,121,123,125,-1,127,129,131,133,135,137,139,141,143,145,147,149,-1,151,153,155,157,159,161,163,165,167,169,171,173,175,177,179,181,-1,183,185,187,189,191,193,195,197,199,201,203,205,207,209,211,213,215,217,219,221,223,225,227,229,231,233,235,237,239,241,243,245,247,-1,-1,-1,-1,-1,-1,-1,-1,-1,-1,-1,-1,-1,-1,-1,-1,-1,-1,-1,-1,-1,-1,-1,-1,-1,-1,-1,-1,-1,-1,-1,-1,-1,-1,-1,-1,-1,-1,-1,-1,-1,-1,-1,-1,-1,-1,-1,-1,-1,-1,-1,-1,-1,-1,-1,-1,-1,-1,-1,-1,-1,-1,-1,-1,-1,-1,-1,-1,-1,-1,-1,-1,-1,-1,-1,-1,-1,-1,-1,-1,-1,-1,-1,-1,-1,-1,-1,-1,-1,-1,-1,-1,-1,-1,-1,-1,-1,-1,-1,-1,-1,-1,-1,-1,-1,-1,-1,-1,-1,-1,-1,-1,-1,-1,-1,-1,-1,-1,-1,-1,-1,-1],"loss_changes":[4.9223883E4,1.4085164E4,4.7471176E4,9.299598E3,5.833828E3,1.2688141E4,3.604792E4,6.519168E3,1.4880817E3,2.4277314E3,3.0030496E3,1.2861184E4,1.4096758E3,2.5035484E4,1.5771781E4,4.3044844E3,5.923439E2,1.2106604E3,5.8267212E1,1.5327158E3,1.5582115E3,1.3790142E3,1.4686416E3,2.632452E4,1.4647904E4,5.976543E2,6.401289E2,4.6685547E4,2.064583E3,1.1301828E4,9.3052234E2,3.2536875E3,7.4005084E2,3.8834464E2,9.546893E1,3.8742E2,4.1763025E2,1.8567717E1,3.3360718E1,1.2825938E3,1.1842765E3,1.1269282E3,1.0861655E3,9.963533E2,1.0559355E3,1.0259829E3,5.5456482E1,2.0779477E4,1.4181106E3,3.8104404E3,4.188994E3,4.4585645E2,4.363257E1,3.8498438E2,5.281006E1,6.4949055E4,1.4110879E3,2.2016987E3,7.5789355E2,6.609617E3,2.129685E3,4.962975E2,1.8707837E2,0E0,3.7498907E2,2.9666467E2,1.8898877E2,2.4796303E2,1.0670282E2,2.1896587E1,8.83183E1,3.3630463E2,3.1690115E2,2.4047192E2,8.291052E1,2.2548485E-1,0E0,2.8199142E1,1.6417603E1,8.9238E2,6.713701E2,3.2036987E1,1.1593165E3,8.2756396E2,1.6001471E2,7.91987E2,1.1592363E3,5.6729126E2,4.245805E2,8.1193536E2,3.5179456E2,8.84454E2,4.8587744E2,0E0,7.3793316E0,2.6460469E3,4.8126675E2,1.4726149E3,2.861638E2,3.802124E3,1.78998E3,2.9437424E3,1.4506494E2,3.0376202E2,2.946726E2,2.4414185E1,4.5944214E1,3.6875952E2,1.8297217E2,2.789795E1,3.9132812E1,1.0973695E4,1.661084E3,7.35947E2,5.0260547E2,7.4180176E2,7.294741E2,3.5265723E2,2.454443E2,4.414828E3,1.1623798E3,1.4023799E3,1.3185461E3,4.2079037E2,1.9002692E2,7.0391174E1,6.0134644E1,0E0,0E0,0E0,0E0,0E0,0E0,0E0,0E0,0E0,0E0,0E0,0E0,0E0,0E0,0E0,0E0,0E0,0E0,0E0,0E0,0E0,0E0,0E0,0E0,0E0,0E0,0E0,0E0,0E0,0E0,0E0,0E0,0E0,0E0,0E0,0E0,0E0,0E0,0E0,0E0,0E0,0E0,0E0,0E0,0E0,0E0,0E0,0E0,0E0,0E0,0E0,0E0,0E0,0E0,0E0,0E0,0E0,0E0,0E0,0E0,0E0,0E0,0E0,0E0,0E0,0E0,0E0,0E0,0E0,0E0,0E0,0E0,0E0,0E0,0E0,0E0,0E0,0E0,0E0,0E0,0E0,0E0,0E0,0E0,0E0,0E0,0E0,0E0,0E0,0E0,0E0,0E0,0E0,0E0,0E0,0E0,0E0,0E0,0E0,0E0,0E0,0E0,0E0,0E0,0E0,0E0,0E0,0E0,0E0,0E0,0E0,0E0,0E0,0E0,0E0,0E0,0E0,0E0,0E0,0E0,0E0,0E0],"parents":[2147483647,0,0,1,1,2,2,3,3,4,4,5,5,6,6,7,7,8,8,9,9,10,10,11,11,12,12,13,13,14,14,15,15,16,16,17,17,18,18,19,19,20,20,21,21,22,22,23,23,24,24,25,25,26,26,27,27,28,28,29,29,30,30,31,31,32,32,33,33,34,34,35,35,36,36,37,37,38,38,39,39,40,40,41,41,42,42,43,43,44,44,45,45,46,46,47,47,48,48,49,49,50,50,51,51,52,52,53,53,54,54,55,55,56,56,57,57,58,58,59,59,60,60,61,61,62,62,64,64,65,65,66,66,67,67,68,68,69,69,70,70,71,71,72,72,73,73,74,74,75,75,77,77,78,78,79,79,80,80,81,81,82,82,83,83,84,84,85,85,86,86,87,87,88,88,89,89,90,90,91,91,92,92,94,94,95,95,96,96,97,97,98,98,99,99,100,100,101,101,102,102,103,103,104,104,105,105,106,106,107,107,108,108,109,109,110,110,111,111,112,112,113,113,114,114,115,115,116,116,117,117,118,118,119,119,120,120,121,121,122,122,123,123,124,124,125,125,126,126],"right_children":[2,4,6,8,10,12,14,16,18,20,22,24,26,28,30,32,34,36,38,40,42,44,46,48,50,52,54,56,58,60,62,64,66,68,70,72,74,76,78,80,82,84,86,88,90,92,94,96,98,100,102,104,106,108,110,112,114,116,118,120,122,124,126,-1,128,130,132,134,136,138,140,142,144,146,148,150,-1,152,154,156,158,160,162,164,166,168,170,172,174,176,178,180,182,-1,184,186,188,190,192,194,196,198,200,202,204,206,208,210,212,214,216,218,220,222,224,226,228,230,232,234,236,238,240,242,244,246,248,-1,-1,-1,-1,-1,-1,-1,-1,-1,-1,-1,-1,-1,-1,-1,-1,-1,-1,-1,-1,-1,-1,-1,-1,-1,-1,-1,-1,-1,-1,-1,-1,-1,-1,-1,-1,-1,-1,-1,-1,-1,-1,-1,-1,-1,-1,-1,-1,-1,-1,-1,-1,-1,-1,-1,-1,-1,-1,-1,-1,-1,-1,-1,-1,-1,-1,-1,-1,-1,-1,-1,-1,-1,-1,-1,-1,-1,-1,-1,-1,-1,-1,-1,-1,-1,-1,-1,-1,-1,-1,-1,-1,-1,-1,-1,-1,-1,-1,-1,-1,-1,-1,-1,-1,-1,-1,-1,-1,-1,-1,-1,-1,-1,-1,-1,-1,-1,-1,-1,-1,-1,-1],"split_conditions":[4.305216E0,1E0,1.82E2,1E0,1.671244E1,1E0,1E0,1E0,4.054023E1,3.3664606E0,2.49E2,1E0,1E0,1E0,1E0,1E0,6.0169334E1,2.4148935E1,3.4882593E0,1E0,2.0173914E1,1.0033494E1,2.8808515E0,1E0,1E0,1E0,1E0,1E0,7.6192725E-1,1E0,1E0,1E0,2.5545454E1,1E0,2.86E2,2.097122E1,1E0,1.57E2,2.5847149E1,8.6206895E-1,-2.3072311E-1,1E0,3.3076134E-1,1.2710849E1,1E0,9.404097E2,-2.6153336E0,1E0,1E0,1E0,1E0,1E0,1.2413793E0,1E0,1.1842332E1,1E0,7.5574976E-1,2.43E2,1E0,1E0,1.7283182E0,1E0,1E0,1.702941E-1,1.3075867E3,1.1656692E1,5.922529E0,5.7776537E0,2.99E2,1.1649125E1,1E0,2.4156525E0,2E0,-3.1825414E-1,3.7454403E1,1.2643421E1,-1.0162797E-1,1.84E2,5.6664482E1,1.1423881E1,1E0,4.33506E2,1E0,2E2,3.37802E-1,7.0011055E1,-2.3023932E0,4.722095E0,1E0,1E0,-3.3918016E0,2E0,2E0,1.7204836E-1,1E0,1E0,3E0,1.7440947E1,1.02E2,8.4638195E0,5.5731044E0,1E0,1E0,9.76284E1,5.5731044E0,-2.539001E0,1E0,8.310633E0,1.1725042E1,-1.89E0,1.3214285E0,1E0,1E0,2.79E2,1E0,2.262549E0,1.5859205E0,1E0,1.21520405E1,3E0,2.22E2,1.8515056E0,1E0,3.26E2,3.47E2,1E0,1.04220495E1,2.4479365E-2,-1.106565E-1,4.2587854E-2,-7.156268E-2,4.425471E-2,1.6650142E-1,-5.8649946E-3,8.612204E-2,-3.5223853E-2,-1.3068278E-1,-6.930205E-2,9.666472E-2,-1.5670116E-1,-2.6766751E-2,-2.6652092E-2,5.7616647E-2,3.416813E-2,-1.0732265E-1,-7.810738E-2,5.9622526E-2,1.5485148E-1,5.907004E-2,6.0880966E-2,1.6295347E-1,-5.932804E-2,-1.3919307E-1,-1.5385881E-1,-2.798274E-2,1.02433495E-1,-4.331671E-2,1.1995118E-1,5.0928045E-2,1.8241355E-1,9.827458E-2,-4.629368E-2,7.624616E-2,1.3434059E-2,-6.415571E-2,8.599216E-2,1.5833313E-2,5.548311E-2,-6.4623944E-2,-2.0044555E-3,1.4200749E-1,1.3563208E-1,5.3792752E-2,-3.1302632E-3,7.00511E-2,-5.597064E-2,2.7467022E-2,-1.15518E-2,1.4871484E-1,-5.537778E-2,1.0499924E-1,-1.1698657E-1,5.677671E-2,-1.1301388E-1,7.243764E-2,1.7029296E-1,-9.631235E-3,-6.42397E-2,-8.134796E-3,-6.180265E-2,-8.568972E-3,-7.23074E-2,2.4002688E-2,-6.469971E-2,-1.6751274E-2,-2.00929E-2,2.8846709E-2,5.279662E-4,3.676411E-2,7.3339164E-2,9.805359E-2,6.3030734E-3,4.3004196E-2,4.202568E-2,8.717338E-2,-2.8437266E-2,9.706646E-2,5.117146E-2,8.558912E-2,2.4850365E-2,7.091176E-2,1.0155413E-1,7.442003E-2,1.363778E-1,1.11908995E-1,1.1070124E-1,8.64399E-2,1.7029814E-1,-3.597064E-2,-9.40668E-2,3.141735E-2,-3.6364507E-2,-1.0116994E-1,-1.2265573E-1,-5.8434475E-3,-6.216788E-2,-9.164904E-3,-1.00818686E-1,-4.9422257E-2,-1.1454059E-1,-4.5082282E-2,-5.0199807E-2,9.287249E-2,-1.0019871E-1,3.1531554E-2,1.3800712E-2,-4.5689847E-2,7.3375374E-2,-5.4071844E-2,-2.4105934E-2,3.1046692E-2,8.953764E-3,-7.2502896E-2,5.913047E-2,-1.5609333E-2,4.958903E-2,1.571678E-1,7.8961335E-2,1.1391238E-1],"split_indices":[64,212,215,213,18,210,212,210,85,45,215,212,213,213,214,211,47,5,45,133,5,19,20,213,213,214,214,211,4,213,213,214,5,154,215,43,167,215,76,15,25,214,11,60,127,28,3,211,211,211,214,211,15,211,0,210,4,215,211,210,27,210,211,0,28,62,50,50,215,59,214,22,112,25,60,0,0,215,65,62,155,6,213,215,11,58,100,71,214,211,3,127,125,0,210,214,122,29,215,33,81,211,154,124,81,21,211,33,87,41,15,214,214,215,214,22,27,210,81,126,215,45,211,215,215,148,101,0,0,0,0,0,0,0,0,0,0,0,0,0,0,0,0,0,0,0,0,0,0,0,0,0,0,0,0,0,0,0,0,0,0,0,0,0,0,0,0,0,0,0,0,0,0,0,0,0,0,0,0,0,0,0,0,0,0,0,0,0,0,0,0,0,0,0,0,0,0,0,0,0,0,0,0,0,0,0,0,0,0,0,0,0,0,0,0,0,0,0,0,0,0,0,0,0,0,0,0,0,0,0,0,0,0,0,0,0,0,0,0,0,0,0,0,0,0,0,0,0,0],"split_type":[0,0,0,0,0,0,0,0,0,0,0,0,0,0,0,0,0,0,0,0,0,0,0,0,0,0,0,0,0,0,0,0,0,0,0,0,0,0,0,0,0,0,0,0,0,0,0,0,0,0,0,0,0,0,0,0,0,0,0,0,0,0,0,0,0,0,0,0,0,0,0,0,0,0,0,0,0,0,0,0,0,0,0,0,0,0,0,0,0,0,0,0,0,0,0,0,0,0,0,0,0,0,0,0,0,0,0,0,0,0,0,0,0,0,0,0,0,0,0,0,0,0,0,0,0,0,0,0,0,0,0,0,0,0,0,0,0,0,0,0,0,0,0,0,0,0,0,0,0,0,0,0,0,0,0,0,0,0,0,0,0,0,0,0,0,0,0,0,0,0,0,0,0,0,0,0,0,0,0,0,0,0,0,0,0,0,0,0,0,0,0,0,0,0,0,0,0,0,0,0,0,0,0,0,0,0,0,0,0,0,0,0,0,0,0,0,0,0,0,0,0,0,0,0,0,0,0,0,0,0,0,0,0,0,0,0,0,0,0,0,0,0,0,0,0,0,0,0,0],"sum_hessian":[6.9777775E5,8.777498E4,6.1000275E5,3.6216684E4,5.1558297E4,3.1353878E5,2.9646397E5,3.0229E4,5.9876826E3,3.1702945E4,1.9855352E4,2.6992284E5,4.361594E4,1.1160025E5,1.848637E5,2.8060824E4,2.168176E3,5.2933506E3,6.943319E2,1.8489037E4,1.3213908E4,1.4042117E4,5.8132344E3,6.7299305E4,2.0262355E5,1.8662393E4,2.4953549E4,7.347608E4,3.8124168E4,1.7083811E5,1.4025597E4,2.6345562E4,1.7152611E3,1.7029882E3,4.6518777E2,2.9521416E3,2.341209E3,1.217253E1,6.821594E2,1.4845819E4,3.6432188E3,7.2902305E3,5.9236772E3,7.8677056E3,6.1744116E3,5.5501055E3,2.6312863E2,3.1030459E4,3.6268844E4,1.00024695E5,1.0259884E5,1.5272603E4,3.389789E3,1.9162086E4,5.7914624E3,5.4884074E4,1.8592006E4,2.70144E4,1.1109768E4,1.2841829E5,4.241982E4,8.600039E3,5.425557E3,2.5381021E4,9.645416E2,1.2042833E3,5.1097778E2,1.2175923E3,4.853959E2,3.1267328E1,4.3392047E2,2.0552925E3,8.968492E2,1.635286E3,7.05923E2,9.258198E0,2.9143322E0,1.8522002E2,4.969394E2,1.7098988E3,1.313592E4,4.9056293E2,3.1526558E3,5.521162E3,1.7690685E3,2.776283E3,3.1473943E3,3.5518054E3,4.3159004E3,5.5090127E3,6.65399E2,1.9473824E3,3.6027231E3,2.5480339E2,8.325246E0,2.2845797E4,8.184662E3,2.6158498E4,1.0110345E4,6.75668E4,3.2457896E4,9.151258E4,1.1086268E4,9.038061E3,6.2345415E3,1.6941913E3,1.6955978E3,9.130073E3,1.0032012E4,2.0760166E3,3.715446E3,3.9176582E4,1.5707494E4,7.3079697E3,1.1284036E4,1.5777706E4,1.1236694E4,9.013537E3,2.0962297E3,1.131332E5,1.5285089E4,2.3661064E4,1.8758758E4,5.6646294E3,2.93541E3,2.9919172E3,2.4336396E3,6.709671E2,2.9357452E2,3.0288422E2,9.013991E2,2.7741898E2,2.335588E2,7.305075E2,4.8708478E2,2.8714493E2,1.9825098E2,1.0468885E1,2.0798443E1,3.7202872E2,6.189175E1,1.3190388E3,7.3625366E2,2.0393486E2,6.929143E2,1.3675505E2,1.498531E3,5.954704E2,1.1045257E2,4.027333E0,5.2308655E0,9.610265E1,8.911736E1,4.853405E2,1.1598859E1,7.3525055E2,9.746482E2,1.1525687E4,1.6102334E3,4.3133783E2,5.9225075E1,1.8087E3,1.3439559E3,2.9496135E3,2.5715488E3,1.3385449E3,4.3052353E2,2.025232E3,7.5105096E2,7.2649725E2,2.420897E3,1.3999877E3,2.1518179E3,3.2716194E3,1.0442809E3,3.8348816E3,1.6741311E3,1.920077E2,4.733913E2,1.5036942E3,4.4368817E2,3.4350347E3,1.6768855E2,7.0120378E0,1.3132085E0,2.1997102E4,8.4869434E2,2.0329088E3,6.1517534E3,7.150161E3,1.9008336E4,3.1664484E2,9.7937E3,3.866879E4,2.8898008E4,2.0793787E4,1.1664108E4,5.2242977E4,3.92696E4,7.585202E3,3.5010657E3,4.7213105E3,4.3167505E3,3.9479155E3,2.286626E3,1.4834085E1,1.6793572E3,6.2931744E2,1.0662803E3,2.3397236E3,6.79035E3,4.8416577E3,5.190354E3,1.100898E3,9.751186E2,2.7783208E3,9.371252E2,3.6401383E4,2.7751992E3,1.4571202E4,1.1362911E3,4.3884976E3,2.9194724E3,1.0902604E4,3.814322E2,3.3513245E3,1.2426382E4,6.321888E3,4.9148066E3,8.207242E3,8.062953E2,1.9703715E3,1.25858406E2,1.1052998E5,2.6032239E3,4.775891E3,1.0509198E4,8.957407E2,2.2765324E4,1.1963639E4,6.795118E3,4.939067E3,7.255626E2,2.5436038E3,3.9180624E2,2.931322E3,6.0595108E1,1.7205563E3,7.130835E2],"tree_param":{"num_deleted":"0","num_feature":"217","num_nodes":"249","size_leaf_vector":"1"}},{"base_weights":[1.2102964E-3,2.801297E-1,-2.2456494E-1,7.526976E-1,1.345428E-1,3.6786072E-2,-5.7123977E-1,8.4210604E-1,-6.873089E-1,9.391678E-2,1.2155324E0,-4.8343275E-2,5.2142465E-1,-1.6193208E-1,-8.023894E-1,1.2357394E0,5.192097E-1,-1.4529045E-1,-1.1133528E0,2.2518812E-1,-3.2185346E-1,1.4081556E0,-6.283493E-1,3.515213E-1,-1.5733367E-1,3.3588105E-1,6.691258E-1,1.6066787E-1,-7.6435095E-1,-9.091E-1,-1.5854953E-1,1.4042093E0,2.3501128E-1,6.1638296E-1,-1.650457E-1,6.4317614E-2,-1.1934619E0,-9.4820875E-1,-1.5065176E0,1.6044067E-1,6.398597E-1,8.113257E-2,-6.066786E-1,-6.374529E-1,1.4925938E0,1.7328058E-1,-1.3039664E0,1.078343E0,-2.2603314E-1,-4.016314E-1,8.230909E-2,2.3641777E-1,4.995075E-1,5.46369E-1,7.896045E-1,5.898122E-1,-1.0834435E0,-1.0313991E0,-5.4351574E-1,-1.0130008E0,-5.345398E-1,-2.9424363E-1,2.2290446E-1,1.4776182E0,1.4854743E-1,-6.947677E-2,7.7670115E-1,5.4004586E-1,1.3409876E0,2.5063968E-1,-8.093992E-1,-6.149963E-1,2.4378471E-1,-1.2899507E0,-3.2199425E-1,-1.0595577E0,-1.8993723E-1,-1.5497247E0,-1.1592793E0,4.3727142E-1,1.8151144E-2,4.1044584E-1,8.3326536E-1,3.3663005E-1,-7.984956E-1,-7.2151446E-1,2.1866141E-1,-3.3692938E-1,-1.4773724E0,1.6169248E0,8.5341954E-1,-2.9636243E-1,7.5637597E-1,-1.4585942E0,-3.9246503E-1,1.5442841E0,-3.7440044E-1,-5.446528E-1,-1.12783864E-1,-5.9855956E-1,-2.576579E-1,2.1261469E-1,-1.7533398E-1,-8.739192E-3,3.8630348E-1,2.640857E-1,5.813805E-1,1.06337845E-1,6.9353896E-1,9.1175395E-1,6.707499E-1,1.4586247E0,-8.548433E-1,-1.1250942E0,9.8082596E-1,-1.1008862E0,-4.1134587E-1,-3.8026243E-1,-1.0165808E0,2.0957053E-1,-1.0336838E0,-5.956825E-1,4.3517295E-1,-1.9910778E-1,-7.656151E-1,7.101667E-2,5.059764E-1,1.5519065E-1,1.9217288E-2,4.5010398E-4,1.4841333E-1,2.928463E-2,-6.1527546E-2,9.191705E-2,-6.083789E-2,6.608882E-2,-1.1406135E-3,1.404663E-1,-4.3529958E-2,-1.6859425E-2,8.140844E-2,-1.0075583E-1,-3.5341922E-3,1.0102727E-1,-9.4690464E-2,-8.955706E-3,5.9487965E-2,-8.909082E-2,-1.49109E-1,6.273705E-2,-1.0115518E-1,-6.892774E-2,-1.1648104E-1,-9.2639506E-2,9.291858E-2,-1.5640102E-1,-9.6151255E-2,-6.997719E-2,-1.5618013E-1,9.0942726E-2,-2.2929625E-3,-2.3776706E-2,3.430822E-2,2.9393777E-2,7.4265115E-2,6.5009944E-2,9.629E-2,7.429247E-2,-6.85103E-2,-8.7169364E-2,3.9529274E-3,-5.7610184E-2,-1.1584409E-1,3.3390727E-2,-5.3029753E-2,-5.4014523E-2,8.3200224E-2,-4.263904E-2,-1.5621077E-1,-1.1510683E-2,1.6503263E-1,1.458744E-1,-2.8721109E-2,3.8127646E-2,-9.548785E-2,1.08501054E-1,1.2244446E-2,-8.500992E-2,-1.6731444E-1,1.5431905E-2,-1.4530869E-1,1.5927552E-1,5.6621605E-3,-6.442019E-2,-1.7351454E-2,-7.777454E-2,-1.3246817E-2,-1.77324E-2,1.9103061E-2,-3.5438176E-2,-7.644557E-2,-2.9226629E-2,5.1885318E-2,-1.5205044E-3,3.3416957E-2,5.001295E-3,-3.4320824E-2,-1.1271845E-2,2.9279148E-2,8.211943E-3,4.4235174E-2,4.4065844E-2,6.539126E-3,3.831373E-2,6.7159794E-2,-1.1047511E-2,2.5514096E-2,6.456741E-2,1.1146338E-1,9.871914E-2,7.120468E-2,5.8665555E-2,9.7278945E-2,1.5927969E-1,-5.4732334E-2,-9.138813E-2,3.1187022E-2,-1.1928411E-1,-5.253771E-2,1.6775964E-1,-1.00757E-1,-1.1636461E-1,-4.49348E-2,-5.3944137E-2,7.823601E-2,6.4610645E-2,-4.4057768E-2,6.3714124E-2,-1.0824098E-1,-3.4319684E-2,1.6535054E-1,-8.908556E-2,-1.1996981E-1,-7.762642E-2,-3.7480246E-2,5.644728E-2,-1.0170487E-1,1.5093185E-2,-3.785744E-2,-3.3587616E-2,-9.26723E-2,2.177549E-2,-2.3176167E-2,4.2551838E-2,1.04406215E-1],"categories":[],"categories_nodes":[],"categories_segments":[],"categories_sizes":[],"default_left":[0,0,0,0,0,0,0,0,0,0,0,0,0,0,0,0,0,0,0,0,0,0,0,0,0,0,0,0,0,0,0,0,0,0,0,0,0,0,0,0,0,0,0,0,0,0,0,0,0,0,0,0,0,0,0,0,0,0,0,0,0,0,0,0,0,0,0,0,0,0,0,0,0,0,0,0,0,0,0,0,0,0,0,0,0,0,0,0,0,0,0,0,0,0,0,0,0,0,0,0,0,0,0,0,0,0,0,0,0,0,0,0,0,0,0,0,0,0,0,0,0,0,0,0,0,0,0,0,0,0,0,0,0,0,0,0,0,0,0,0,0,0,0,0,0,0,0,0,0,0,0,0,0,0,0,0,0,0,0,0,0,0,0,0,0,0,0,0,0,0,0,0,0,0,0,0,0,0,0,0,0,0,0,0,0,0,0,0,0,0,0,0,0,0,0,0,0,0,0,0,0,0,0,0,0,0,0,0,0,0,0,0,0,0,0,0,0,0,0,0,0,0,0,0,0,0,0,0,0,0,0,0,0,0,0,0,0,0,0,0,0,0,0,0,0,0,0,0,0,0,0,0,0,0,0],"id":3,"left_children":[1,3,5,7,9,11,13,15,17,19,21,23,25,27,29,31,33,35,37,39,41,43,45,47,49,51,53,55,57,59,61,63,65,67,69,71,73,75,77,79,81,83,85,87,89,91,93,95,97,99,101,103,105,107,109,111,113,115,117,119,121,123,125,127,129,131,133,135,137,139,141,143,145,147,149,151,153,155,157,159,161,163,165,167,169,171,173,175,177,179,181,183,185,187,189,191,193,195,197,199,201,203,205,207,209,211,213,215,217,219,221,223,225,227,229,231,233,235,237,239,241,243,245,247,249,251,253,-1,-1,-1,-1,-1,-1,-1,-1,-1,-1,-1,-1,-1,-1,-1,-1,-1,-1,-1,-1,-1,-1,-1,-1,-1,-1,-1,-1,-1,-1,-1,-1,-1,-1,-1,-1,-1,-1,-1,-1,-1,-1,-1,-1,-1,-1,-1,-1,-1,-1,-1,-1,-1,-1,-1,-1,-1,-1,-1,-1,-1,-1,-1,-1,-1,-1,-1,-1,-1,-1,-1,-1,-1,-1,-1,-1,-1,-1,-1,-1,-1,-1,-1,-1,-1,-1,-1,-1,-1,-1,-1,-1,-1,-1,-1,-1,-1,-1,-1,-1,-1,-1,-1,-1,-1,-1,-1,-1,-1,-1,-1,-1,-1,-1,-1,-1,-1,-1,-1,-1,-1,-1,-1,-1,-1,-1,-1,-1],"loss_changes":[4.348827E4,2.1254314E4,3.457914E4,9.368793E3,1.0371758E4,8.97782E3,1.55205E4,8.706094E3,9.82151E2,1.2423563E4,3.0400605E3,8.066824E3,8.9056445E2,1.1507027E4,7.202703E3,5.20384E3,2.5028223E3,4.1203976E2,1.517915E2,4.644741E3,6.2697344E3,1.3398271E3,4.394141E2,1.6642934E4,8.515412E3,2.3435559E2,2.6683496E2,2.058957E4,1.2166611E3,3.4988828E3,7.717956E2,2.4350352E3,7.34166E2,1.8216094E3,1.2544774E3,1.909984E2,2.5448395E1,1.4167151E2,6.9259033E0,5.8943613E3,1.0359785E3,5.084505E3,3.0335654E3,7.6864395E1,5.884453E2,1.0244149E2,6.0877686E1,1.1883852E4,7.970674E2,2.0418203E3,2.4651907E3,3.295666E2,1.04695435E2,5.808701E2,1.313335E2,3.5991055E4,8.525957E2,4.017129E2,8.724612E2,1.7806484E3,1.1587017E3,4.928623E2,1.6816348E2,2.3831328E3,2.8117548E2,5.641365E2,3.1717047E2,1.9872051E3,3.5636035E2,6.7290497E2,2.8162146E2,1.7855428E2,1.450828E2,1.9873413E1,2.3408283E1,5.5559692E1,1.8130672E2,2.1820068E0,1.3633232E1,1.1038717E4,8.219329E3,4.1335876E2,2.997119E2,7.2785747E3,3.1243677E2,1.783669E3,3.3789014E2,5.5478806E1,5.853958E0,3.605537E2,8.4021014E2,9.342437E1,3.446675E1,4.617688E1,3.9048714E1,9.582969E2,2.3091925E2,5.563624E2,3.1972168E2,1.2316172E3,1.1185483E3,1.3504387E3,9.33073E2,1.0681748E2,9.482001E1,4.93882E1,7.1746704E1,7.267906E1,1.3406616E2,6.634717E1,1.1659253E2,4.8209453E3,7.4236426E2,3.926875E2,2.758812E2,3.4250488E2,1.4532356E2,5.2115234E2,3.1705103E2,9.372802E2,1.6394375E3,7.323872E2,2.1891934E2,5.751218E2,1.2719238E2,1.13343605E2,5.825244E1,0E0,0E0,0E0,0E0,0E0,0E0,0E0,0E0,0E0,0E0,0E0,0E0,0E0,0E0,0E0,0E0,0E0,0E0,0E0,0E0,0E0,0E0,0E0,0E0,0E0,0E0,0E0,0E0,0E0,0E0,0E0,0E0,0E0,0E0,0E0,0E0,0E0,0E0,0E0,0E0,0E0,0E0,0E0,0E0,0E0,0E0,0E0,0E0,0E0,0E0,0E0,0E0,0E0,0E0,0E0,0E0,0E0,0E0,0E0,0E0,0E0,0E0,0E0,0E0,0E0,0E0,0E0,0E0,0E0,0E0,0E0,0E0,0E0,0E0,0E0,0E0,0E0,0E0,0E0,0E0,0E0,0E0,0E0,0E0,0E0,0E0,0E0,0E0,0E0,0E0,0E0,0E0,0E0,0E0,0E0,0E0,0E0,0E0,0E0,0E0,0E0,0E0,0E0,0E0,0E0,0E0,0E0,0E0,0E0,0E0,0E0,0E0,0E0,0E0,0E0,0E0,0E0,0E0,0E0,0E0,0E0,0E0,0E0,0E0,0E0,0E0,0E0,0E0],"parents":[2147483647,0,0,1,1,2,2,3,3,4,4,5,5,6,6,7,7,8,8,9,9,10,10,11,11,12,12,13,13,14,14,15,15,16,16,17,17,18,18,19,19,20,20,21,21,22,22,23,23,24,24,25,25,26,26,27,27,28,28,29,29,30,30,31,31,32,32,33,33,34,34,35,35,36,36,37,37,38,38,39,39,40,40,41,41,42,42,43,43,44,44,45,45,46,46,47,47,48,48,49,49,50,50,51,51,52,52,53,53,54,54,55,55,56,56,57,57,58,58,59,59,60,60,61,61,62,62,63,63,64,64,65,65,66,66,67,67,68,68,69,69,70,70,71,71,72,72,73,73,74,74,75,75,76,76,77,77,78,78,79,79,80,80,81,81,82,82,83,83,84,84,85,85,86,86,87,87,88,88,89,89,90,90,91,91,92,92,93,93,94,94,95,95,96,96,97,97,98,98,99,99,100,100,101,101,102,102,103,103,104,104,105,105,106,106,107,107,108,108,109,109,110,110,111,111,112,112,113,113,114,114,115,115,116,116,117,117,118,118,119,119,120,120,121,121,122,122,123,123,124,124,125,125,126,126],"right_children":[2,4,6,8,10,12,14,16,18,20,22,24,26,28,30,32,34,36,38,40,42,44,46,48,50,52,54,56,58,60,62,64,66,68,70,72,74,76,78,80,82,84,86,88,90,92,94,96,98,100,102,104,106,108,110,112,114,116,118,120,122,124,126,128,130,132,134,136,138,140,142,144,146,148,150,152,154,156,158,160,162,164,166,168,170,172,174,176,178,180,182,184,186,188,190,192,194,196,198,200,202,204,206,208,210,212,214,216,218,220,222,224,226,228,230,232,234,236,238,240,242,244,246,248,250,252,254,-1,-1,-1,-1,-1,-1,-1,-1,-1,-1,-1,-1,-1,-1,-1,-1,-1,-1,-1,-1,-1,-1,-1,-1,-1,-1,-1,-1,-1,-1,-1,-1,-1,-1,-1,-1,-1,-1,-1,-1,-1,-1,-1,-1,-1,-1,-1,-1,-1,-1,-1,-1,-1,-1,-1,-1,-1,-1,-1,-1,-1,-1,-1,-1,-1,-1,-1,-1,-1,-1,-1,-1,-1,-1,-1,-1,-1,-1,-1,-1,-1,-1,-1,-1,-1,-1,-1,-1,-1,-1,-1,-1,-1,-1,-1,-1,-1,-1,-1,-1,-1,-1,-1,-1,-1,-1,-1,-1,-1,-1,-1,-1,-1,-1,-1,-1,-1,-1,-1,-1,-1,-1,-1,-1,-1,-1,-1,-1],"split_conditions":[1E0,4.305216E0,1.92E2,1.2788349E2,3.811788E1,1E0,1E0,1E0,2.35E2,2.4E2,6E0,1E0,1E0,1E0,1E0,1E0,3.4094018E-1,2.3889675E1,4.82E2,1E0,1E0,1.0787991E1,2.1E2,1E0,1E0,1E0,1E0,1E0,3.58248E2,1E0,1E0,1E0,1.5718477E1,1E0,3.94552E0,1E0,1E0,1E0,4.4342793E1,1E0,1E0,1E0,1E0,2.45E2,-4.7846925E-1,4.2087234E1,3.7809155E0,1E0,9.01757E1,6.757043E2,1.5E2,8.367831E0,5.3129584E-1,1.4405021E1,3.809524E-1,1E0,1E0,1E0,2.8E2,-2.6871119E0,2.6250148E0,3.47E2,1E0,1E0,1E0,1.121302E2,3.0034279E1,2.72E2,6.516838E1,-4.4752368E-1,1E0,5.1566634E0,3.6327297E1,2.7072213E0,1.0166601E1,-4.8077995E-1,1E0,6.066367E1,6.825E2,1E0,1E0,1E0,1E0,1E0,3E0,3.39E2,3.6E2,1E0,9.270597E-3,-1.8302558E-1,-2.6656752E0,3.1040745E1,3.235198E1,2.79E2,1E0,1E0,1.2084551E0,1E0,1E0,1.4E2,1E0,8.69748E1,-2.7E0,1.2133961E1,1E0,1.41E2,4.390415E0,8.26782E1,1E0,1.47E2,1E0,1E0,1E0,1E0,6.1070217E1,1.21520405E1,1E0,-2.6419017E0,2.5619283E0,4E0,2.55E2,2.624393E0,-2.352282E0,6.786134E-1,1.2666029E1,-1.1143543E-1,1.1584652E1,1.5519065E-1,1.9217288E-2,4.5010398E-4,1.4841333E-1,2.928463E-2,-6.1527546E-2,9.191705E-2,-6.083789E-2,6.608882E-2,-1.1406135E-3,1.404663E-1,-4.3529958E-2,-1.6859425E-2,8.140844E-2,-1.0075583E-1,-3.5341922E-3,1.0102727E-1,-9.4690464E-2,-8.955706E-3,5.9487965E-2,-8.909082E-2,-1.49109E-1,6.273705E-2,-1.0115518E-1,-6.892774E-2,-1.1648104E-1,-9.2639506E-2,9.291858E-2,-1.5640102E-1,-9.6151255E-2,-6.997719E-2,-1.5618013E-1,9.0942726E-2,-2.2929625E-3,-2.3776706E-2,3.430822E-2,2.9393777E-2,7.4265115E-2,6.5009944E-2,9.629E-2,7.429247E-2,-6.85103E-2,-8.7169364E-2,3.9529274E-3,-5.7610184E-2,-1.1584409E-1,3.3390727E-2,-5.3029753E-2,-5.4014523E-2,8.3200224E-2,-4.263904E-2,-1.5621077E-1,-1.1510683E-2,1.6503263E-1,1.458744E-1,-2.8721109E-2,3.8127646E-2,-9.548785E-2,1.08501054E-1,1.2244446E-2,-8.500992E-2,-1.6731444E-1,1.5431905E-2,-1.4530869E-1,1.5927552E-1,5.6621605E-3,-6.442019E-2,-1.7351454E-2,-7.777454E-2,-1.3246817E-2,-1.77324E-2,1.9103061E-2,-3.5438176E-2,-7.644557E-2,-2.9226629E-2,5.1885318E-2,-1.5205044E-3,3.3416957E-2,5.001295E-3,-3.4320824E-2,-1.1271845E-2,2.9279148E-2,8.211943E-3,4.4235174E-2,4.4065844E-2,6.539126E-3,3.831373E-2,6.7159794E-2,-1.1047511E-2,2.5514096E-2,6.456741E-2,1.1146338E-1,9.871914E-2,7.120468E-2,5.8665555E-2,9.7278945E-2,1.5927969E-1,-5.4732334E-2,-9.138813E-2,3.1187022E-2,-1.1928411E-1,-5.253771E-2,1.6775964E-1,-1.00757E-1,-1.1636461E-1,-4.49348E-2,-5.3944137E-2,7.823601E-2,6.4610645E-2,-4.4057768E-2,6.3714124E-2,-1.0824098E-1,-3.4319684E-2,1.6535054E-1,-8.908556E-2,-1.1996981E-1,-7.762642E-2,-3.7480246E-2,5.644728E-2,-1.0170487E-1,1.5093185E-2,-3.785744E-2,-3.3587616E-2,-9.26723E-2,2.177549E-2,-2.3176167E-2,4.2551838E-2,1.04406215E-1],"split_indices":[152,64,215,75,98,210,212,212,215,215,122,212,213,213,210,213,14,44,215,214,212,0,215,213,213,211,211,211,7,213,213,210,65,167,123,212,210,210,89,212,213,211,214,215,12,88,100,211,124,28,215,33,99,30,105,210,178,210,215,23,20,215,211,211,167,124,88,215,68,100,214,57,87,20,103,12,214,57,215,213,213,210,211,213,161,215,215,214,2,103,23,58,89,215,212,214,99,211,211,215,214,124,41,74,212,215,54,124,125,215,214,214,214,210,75,81,214,23,45,107,215,99,21,4,0,25,81,0,0,0,0,0,0,0,0,0,0,0,0,0,0,0,0,0,0,0,0,0,0,0,0,0,0,0,0,0,0,0,0,0,0,0,0,0,0,0,0,0,0,0,0,0,0,0,0,0,0,0,0,0,0,0,0,0,0,0,0,0,0,0,0,0,0,0,0,0,0,0,0,0,0,0,0,0,0,0,0,0,0,0,0,0,0,0,0,0,0,0,0,0,0,0,0,0,0,0,0,0,0,0,0,0,0,0,0,0,0,0,0,0,0,0,0,0,0,0,0,0,0,0,0,0,0,0,0],"split_type":[0,0,0,0,0,0,0,0,0,0,0,0,0,0,0,0,0,0,0,0,0,0,0,0,0,0,0,0,0,0,0,0,0,0,0,0,0,0,0,0,0,0,0,0,0,0,0,0,0,0,0,0,0,0,0,0,0,0,0,0,0,0,0,0,0,0,0,0,0,0,0,0,0,0,0,0,0,0,0,0,0,0,0,0,0,0,0,0,0,0,0,0,0,0,0,0,0,0,0,0,0,0,0,0,0,0,0,0,0,0,0,0,0,0,0,0,0,0,0,0,0,0,0,0,0,0,0,0,0,0,0,0,0,0,0,0,0,0,0,0,0,0,0,0,0,0,0,0,0,0,0,0,0,0,0,0,0,0,0,0,0,0,0,0,0,0,0,0,0,0,0,0,0,0,0,0,0,0,0,0,0,0,0,0,0,0,0,0,0,0,0,0,0,0,0,0,0,0,0,0,0,0,0,0,0,0,0,0,0,0,0,0,0,0,0,0,0,0,0,0,0,0,0,0,0,0,0,0,0,0,0,0,0,0,0,0,0,0,0,0,0,0,0,0,0,0,0,0,0,0,0,0,0,0,0],"sum_hessian":[6.90581E5,3.089313E5,3.8164966E5,7.275708E4,2.3617423E5,2.1760416E5,1.640455E5,6.850454E4,4.252542E3,2.2762188E5,8.552366E3,1.8509333E5,3.2510828E4,5.920744E4,1.04838055E5,3.0868283E4,3.7636254E4,1.8727224E3,2.3798196E3,1.7300108E5,5.4620797E4,7.743867E3,8.0849915E2,3.964373E4,1.454496E5,1.4412394E4,1.8098436E4,3.8559824E4,2.0647617E4,8.993185E4,1.4906205E4,2.6419777E4,4.448507E3,3.295623E4,4.680022E3,1.562199E3,3.1052344E2,1.6806902E3,6.991294E2,1.4963898E5,2.3362086E4,2.261927E4,3.200153E4,3.064593E2,7.437408E3,3.7044623E2,4.3805295E2,1.7552768E4,2.2090963E4,7.202459E4,7.342501E4,8.966708E3,5.445685E3,8.969947E3,9.128489E3,2.8671066E4,9.888759E3,9.342601E3,1.1305018E4,7.039991E4,1.9531941E4,1.0995314E4,3.9108906E3,2.4960193E4,1.4595845E3,2.8488755E3,1.5996312E3,2.9818357E4,3.1378735E3,2.8455334E3,1.8344885E3,3.254523E2,1.2367467E3,2.7870486E2,3.181858E1,1.4647965E3,2.1589369E2,6.1560345E2,8.352592E1,5.0800383E4,9.88386E4,1.0689118E4,1.2672968E4,1.7529012E4,5.090256E3,2.809299E4,3.90854E3,2.2776659E2,7.869269E1,6.223722E3,1.213686E3,2.0572911E2,1.647171E2,3.734929E2,6.4560036E1,1.3290088E4,4.26268E3,5.790929E3,1.6300033E4,3.0415594E4,4.1609E4,4.876298E4,2.4662023E4,3.4028318E3,5.5638765E3,1.4073551E3,4.0383298E3,2.2489978E3,6.720949E3,4.4952646E3,4.633224E3,1.7903766E4,1.0767301E4,9.694072E3,1.9468665E2,8.399724E3,9.428764E2,8.407295E3,2.8977236E3,1.170879E3,6.922903E4,1.8374178E4,1.1577634E3,9.151194E3,1.8441202E3,2.5468372E3,1.3640536E3,2.3596115E4,1.3640778E3,1.3193011E3,1.4028331E2,1.7127861E3,1.1360892E3,1.4510491E3,1.4858215E2,2.4458299E4,5.360059E3,3.0296855E3,1.0818801E2,1.6323652E3,1.2131682E3,1.460099E3,3.7438962E2,5.4498688E1,2.709536E2,6.351772E2,6.015695E2,9.7041595E1,1.8166325E2,1.3463186E1,1.8355394E1,3.2755432E2,1.1372422E3,1.3041579E2,8.547789E1,5.97768E2,1.783549E1,4.1559597E1,4.1966316E1,2.5073545E4,2.5726838E4,5.5291293E4,4.3547312E4,7.9164883E3,2.7726301E3,5.2570703E3,7.415897E3,1.2542144E4,4.9868687E3,4.6812847E3,4.0897128E2,2.1081525E4,7.0114644E3,3.388278E3,5.202621E2,1.9495073E2,3.281587E1,6.7713103E0,7.192138E1,1.176583E2,6.1060635E3,7.9253546E2,4.2115057E2,1.0180736E2,1.0392176E2,1.0754296E2,5.717415E1,9.9948654E1,2.7354425E2,4.3726597E1,2.083344E1,1.2870596E4,4.1949152E2,1.8173967E3,2.4452834E3,3.6979473E3,2.092982E3,1.3444759E4,2.8552742E3,1.2307223E4,1.8108371E4,3.9834848E4,1.7741547E3,1.696629E4,3.1796691E4,1.0529328E4,1.4132696E4,2.5312222E3,8.716095E2,8.6644586E2,4.69743E3,7.438694E2,6.634858E2,1.2662891E3,2.7720408E3,9.155355E2,1.3334622E3,6.039517E3,6.81432E2,3.257057E3,1.2382078E3,3.6287783E3,1.004446E3,1.6781697E4,1.1220684E3,1.0249109E4,5.181915E2,8.708357E3,9.857152E2,1.4439915E2,5.0287502E1,7.66027E3,7.394538E2,8.5249243E2,9.038399E1,4.6555975E2,7.941735E3,1.1026788E2,2.7874556E3,8.4783527E2,3.2304376E2,3.722001E4,3.200902E4,1.0106513E4,8.267665E3,1.0642312E3,9.353216E1,3.1017407E3,6.049454E3,5.045238E2,1.3395964E3,1.715837E3,8.310001E2,1.189738E3,1.7431558E2],"tree_param":{"num_deleted":"0","num_feature":"217","num_nodes":"255","size_leaf_vector":"1"}},{"base_weights":[-1.123274E-5,2.54398E-1,-2.0628552E-1,6.907874E-1,1.21272214E-1,3.0681564E-2,-5.246647E-1,1.0776486E0,3.9688352E-1,8.483422E-2,1.1083068E0,-4.3340832E-2,4.5692167E-1,-1.4848407E-1,-7.3523885E-1,1.2662754E0,1.02074094E-1,6.043146E-1,2.2593027E-2,2.4365741E-1,-2.1604331E-1,1.2887573E0,-5.9553206E-1,3.1793013E-1,-1.4028946E-1,2.8356156E-1,5.9560657E-1,1.5839428E-1,-7.137252E-1,-8.37659E-1,-1.2856986E-1,1.37189E0,-1.6768812E-1,2.9607815E-1,-1.1609236E0,6.932342E-1,-2.3330921E-1,4.2659408E-1,-3.3378637E-1,1.8545406E-1,6.951066E-1,1.2012548E-1,-4.51816E-1,-6.3282675E-1,1.3727194E0,4.9915183E-2,-1.3405547E0,1.0052379E0,-2.1377178E-1,-3.671952E-1,8.162784E-2,2.3598315E-1,6.252223E-1,4.7247365E-1,7.1527714E-1,5.5659467E-1,-1.0033442E0,-9.749988E-1,-5.06186E-1,-9.3801683E-1,-4.82118E-1,-2.0182873E-1,4.365252E-1,1.4321485E0,-1.4560446E-1,1.5449935E-1,-1.0203123E0,-1.5855815E-1,6.2949E-1,4.7991782E-1,-1.190635E0,8.9138323E-1,4.381327E-1,-7.3575395E-1,6.0039693E-1,9.697494E-2,9.6911955E-1,2.5028333E-1,-5.891703E-1,4.3106094E-1,7.365477E-2,4.85421E-1,8.638973E-1,3.4952384E-1,-6.413924E-1,-5.6285423E-1,2.863611E-1,-8.6027473E-1,5.789681E-1,1.4940519E0,7.369104E-1,-3.897293E-1,6.2139636E-1,-1.5053596E0,-3.3297613E-1,1.4564036E0,-3.3664477E-1,-4.861653E-1,-1.18964486E-1,-5.89075E-1,-2.5195107E-1,2.47634E-1,-8.793685E-2,4.4316404E-2,3.304665E-1,1.5863591E-1,6.726274E-1,8.562901E-2,6.097862E-1,6.0617286E-1,8.5394245E-1,1.3771477E0,-7.6083195E-1,-1.0426238E0,8.9956844E-1,-1.0408957E0,-3.865943E-1,-3.672443E-1,-9.428684E-1,1.7276335E-1,-9.570323E-1,-6.740434E-1,-2.2874886E-1,6.039359E-2,-3.428382E-1,5.062034E-1,-1.5508427E-1,1.5084504E-1,1.320771E-2,2.0314762E-2,-1.1203959E-1,-1.5736341E-2,9.242083E-2,7.4224055E-2,-1.12196185E-1,4.5027357E-2,-4.8126828E-2,3.9510734E-2,1.2268664E-1,1.3283259E-1,-1.0810552E-1,-9.7245626E-2,-1.3563937E-1,9.486382E-2,-1.9646624E-2,-2.4463297E-3,6.233697E-2,-9.8299734E-2,1.4955461E-2,-4.4389687E-2,1.1139434E-1,-2.1019712E-2,5.810526E-2,1.13693155E-1,-1.0949959E-1,4.153064E-2,-1.3792364E-1,-7.00263E-2,1.4418499E-1,8.9201376E-2,1.3614398E-3,-1.4393826E-2,3.8332786E-2,2.6956383E-2,6.561788E-2,9.557832E-2,6.396686E-2,7.842426E-2,-4.892392E-2,-7.9558045E-2,3.2093606E-3,-7.169955E-2,-1.1559054E-2,3.726253E-2,-4.8365038E-2,-1.1053015E-1,6.234346E-3,9.623384E-2,-1.01043895E-1,-1.792079E-2,1.5262909E-1,1.08887866E-1,-1.02406204E-1,2.2298394E-2,-9.391969E-2,7.91535E-2,-1.1584197E-2,-9.1446206E-2,-1.5960605E-1,2.1014346E-2,-1.7095184E-1,1.5054451E-1,1.5074469E-3,-6.1325338E-2,-2.1553164E-2,-7.120847E-2,-9.3450835E-3,-1.1507516E-1,-9.4921505E-3,-7.205006E-2,-3.467609E-2,-3.4644958E-2,1.2138913E-3,2.0578973E-2,7.610386E-2,-3.1706113E-2,4.5209005E-3,-4.2933743E-3,3.062748E-2,6.775535E-3,3.9173897E-2,-1.7796408E-1,2.9410047E-2,9.561281E-2,6.1483055E-2,-1.8927751E-2,2.1336934E-2,2.4136359E-2,6.6316575E-2,6.727546E-2,4.102815E-2,9.434452E-2,7.266121E-2,1.5054868E-1,-4.6364706E-2,-4.0839422E-2,-9.451092E-2,-8.5253395E-2,-1.2457422E-1,1.5604526E-1,-1.1174666E-1,-1.0916883E-1,-4.166187E-2,4.4636693E-2,-6.4983256E-2,5.1453765E-2,-4.191745E-2,1.0595038E-1,-9.934252E-2,-5.0831247E-2,1.2897615E-1,-7.954825E-2,-1.0882812E-1,-7.754894E-2,-2.395835E-2,-9.287513E-3,-7.906082E-2,-9.742624E-3,5.1880307E-2,-4.248449E-2,2.7812395E-2,3.8801596E-2,7.156532E-2,-8.795231E-2,1.0832957E-2],"categories":[],"categories_nodes":[],"categories_segments":[],"categories_sizes":[],"default_left":[0,0,0,0,0,0,0,0,0,0,0,0,0,0,0,0,0,0,0,0,0,0,0,0,0,0,0,0,0,0,0,0,0,0,0,0,0,0,0,0,0,0,0,0,0,0,0,0,0,0,0,0,0,0,0,0,0,0,0,0,0,0,0,0,0,0,0,0,0,0,0,0,0,0,0,0,0,0,0,0,0,0,0,0,0,0,0,0,0,0,0,0,0,0,0,0,0,0,0,0,0,0,0,0,0,0,0,0,0,0,0,0,0,0,0,0,0,0,0,0,0,0,0,0,0,0,0,0,0,0,0,0,0,0,0,0,0,0,0,0,0,0,0,0,0,0,0,0,0,0,0,0,0,0,0,0,0,0,0,0,0,0,0,0,0,0,0,0,0,0,0,0,0,0,0,0,0,0,0,0,0,0,0,0,0,0,0,0,0,0,0,0,0,0,0,0,0,0,0,0,0,0,0,0,0,0,0,0,0,0,0,0,0,0,0,0,0,0,0,0,0,0,0,0,0,0,0,0,0,0,0,0,0,0,0,0,0,0,0,0,0,0,0,0,0,0,0,0,0,0,0,0,0,0,0],"id":4,"left_children":[1,3,5,7,9,11,13,15,17,19,21,23,25,27,29,31,33,35,37,39,41,43,45,47,49,51,53,55,57,59,61,63,65,67,69,71,73,75,77,79,81,83,85,87,89,91,93,95,97,99,101,103,105,107,109,111,113,115,117,119,121,123,125,127,129,131,133,135,137,139,141,143,145,147,149,151,153,155,157,159,161,163,165,167,169,171,173,175,177,179,181,183,185,187,189,191,193,195,197,199,201,203,205,207,209,211,213,215,217,219,221,223,225,227,229,231,233,235,237,239,241,243,245,247,249,251,253,-1,-1,-1,-1,-1,-1,-1,-1,-1,-1,-1,-1,-1,-1,-1,-1,-1,-1,-1,-1,-1,-1,-1,-1,-1,-1,-1,-1,-1,-1,-1,-1,-1,-1,-1,-1,-1,-1,-1,-1,-1,-1,-1,-1,-1,-1,-1,-1,-1,-1,-1,-1,-1,-1,-1,-1,-1,-1,-1,-1,-1,-1,-1,-1,-1,-1,-1,-1,-1,-1,-1,-1,-1,-1,-1,-1,-1,-1,-1,-1,-1,-1,-1,-1,-1,-1,-1,-1,-1,-1,-1,-1,-1,-1,-1,-1,-1,-1,-1,-1,-1,-1,-1,-1,-1,-1,-1,-1,-1,-1,-1,-1,-1,-1,-1,-1,-1,-1,-1,-1,-1,-1,-1,-1,-1,-1,-1,-1],"loss_changes":[3.587207E4,1.7780871E4,2.848012E4,8.1337383E3,8.434736E3,6.828309E3,1.2759309E4,5.6834336E3,3.1567905E3,1.0808428E4,2.5686826E3,6.4585435E3,7.695713E2,1.0027906E4,6.4164297E3,3.920211E3,1.2274034E3,1.9488486E3,2.0880562E3,3.8895557E3,6.1938076E3,1.2199502E3,3.8529922E2,1.4258089E4,7.320784E3,2.3112146E2,2.614497E2,1.7334658E4,1.1020596E3,3.1516367E3,6.1777386E2,2.2047734E3,4.885406E2,6.582783E2,3.3661682E1,1.1947373E3,1.0532115E3,1.2153209E3,1.1496676E3,3.600705E3,5.974956E2,5.628174E3,3.765125E3,8.84984E1,5.5594824E2,1.0879605E2,6.0749268E1,1.0303639E4,5.6800934E2,1.8378164E3,2.0690273E3,2.263211E2,3.8248962E1,4.6593176E2,1.3538818E2,3.016903E4,7.168467E2,3.4828418E2,6.874092E2,1.455668E3,9.4566943E2,4.88409E2,7.07587E1,2.2996172E3,3.1407245E2,3.1033096E2,8.903833E1,3.6163385E2,3.4977222E2,2.0470942E1,2.1076843E1,8.2935645E2,8.863701E2,3.4359534E2,5.0820276E2,6.2929E2,8.9224194E2,6.3190515E2,1.2118341E3,7.8930405E3,6.0724243E3,2.7771143E2,1.9169775E2,9.028443E3,7.745774E2,2.7524258E3,3.9937372E2,6.0747772E1,3.32442E1,3.2818848E2,7.23301E2,8.2861755E1,2.3791504E1,1.4179504E1,4.172123E1,9.001992E2,1.4323978E2,5.0374377E2,4.046812E2,7.8202246E2,1.1807986E3,7.9759033E2,1.1093411E3,9.440678E1,1.347066E2,4.3844456E1,2.4679321E1,8.0873764E1,1.27014404E2,6.535962E1,4.382544E1,4.0639844E3,6.949048E2,3.5977148E2,2.6279834E2,2.5578027E2,2.0009581E2,3.9455005E2,2.7909814E2,8.8483374E2,1.4346172E3,4.8743262E2,6.401771E2,3.343711E2,4.376308E2,3.7385895E1,3.4920055E1,0E0,0E0,0E0,0E0,0E0,0E0,0E0,0E0,0E0,0E0,0E0,0E0,0E0,0E0,0E0,0E0,0E0,0E0,0E0,0E0,0E0,0E0,0E0,0E0,0E0,0E0,0E0,0E0,0E0,0E0,0E0,0E0,0E0,0E0,0E0,0E0,0E0,0E0,0E0,0E0,0E0,0E0,0E0,0E0,0E0,0E0,0E0,0E0,0E0,0E0,0E0,0E0,0E0,0E0,0E0,0E0,0E0,0E0,0E0,0E0,0E0,0E0,0E0,0E0,0E0,0E0,0E0,0E0,0E0,0E0,0E0,0E0,0E0,0E0,0E0,0E0,0E0,0E0,0E0,0E0,0E0,0E0,0E0,0E0,0E0,0E0,0E0,0E0,0E0,0E0,0E0,0E0,0E0,0E0,0E0,0E0,0E0,0E0,0E0,0E0,0E0,0E0,0E0,0E0,0E0,0E0,0E0,0E0,0E0,0E0,0E0,0E0,0E0,0E0,0E0,0E0,0E0,0E0,0E0,0E0,0E0,0E0,0E0,0E0,0E0,0E0,0E0,0E0],"parents":[2147483647,0,0,1,1,2,2,3,3,4,4,5,5,6,6,7,7,8,8,9,9,10,10,11,11,12,12,13,13,14,14,15,15,16,16,17,17,18,18,19,19,20,20,21,21,22,22,23,23,24,24,25,25,26,26,27,27,28,28,29,29,30,30,31,31,32,32,33,33,34,34,35,35,36,36,37,37,38,38,39,39,40,40,41,41,42,42,43,43,44,44,45,45,46,46,47,47,48,48,49,49,50,50,51,51,52,52,53,53,54,54,55,55,56,56,57,57,58,58,59,59,60,60,61,61,62,62,63,63,64,64,65,65,66,66,67,67,68,68,69,69,70,70,71,71,72,72,73,73,74,74,75,75,76,76,77,77,78,78,79,79,80,80,81,81,82,82,83,83,84,84,85,85,86,86,87,87,88,88,89,89,90,90,91,91,92,92,93,93,94,94,95,95,96,96,97,97,98,98,99,99,100,100,101,101,102,102,103,103,104,104,105,105,106,106,107,107,108,108,109,109,110,110,111,111,112,112,113,113,114,114,115,115,116,116,117,117,118,118,119,119,120,120,121,121,122,122,123,123,124,124,125,125,126,126],"right_children":[2,4,6,8,10,12,14,16,18,20,22,24,26,28,30,32,34,36,38,40,42,44,46,48,50,52,54,56,58,60,62,64,66,68,70,72,74,76,78,80,82,84,86,88,90,92,94,96,98,100,102,104,106,108,110,112,114,116,118,120,122,124,126,128,130,132,134,136,138,140,142,144,146,148,150,152,154,156,158,160,162,164,166,168,170,172,174,176,178,180,182,184,186,188,190,192,194,196,198,200,202,204,206,208,210,212,214,216,218,220,222,224,226,228,230,232,234,236,238,240,242,244,246,248,250,252,254,-1,-1,-1,-1,-1,-1,-1,-1,-1,-1,-1,-1,-1,-1,-1,-1,-1,-1,-1,-1,-1,-1,-1,-1,-1,-1,-1,-1,-1,-1,-1,-1,-1,-1,-1,-1,-1,-1,-1,-1,-1,-1,-1,-1,-1,-1,-1,-1,-1,-1,-1,-1,-1,-1,-1,-1,-1,-1,-1,-1,-1,-1,-1,-1,-1,-1,-1,-1,-1,-1,-1,-1,-1,-1,-1,-1,-1,-1,-1,-1,-1,-1,-1,-1,-1,-1,-1,-1,-1,-1,-1,-1,-1,-1,-1,-1,-1,-1,-1,-1,-1,-1,-1,-1,-1,-1,-1,-1,-1,-1,-1,-1,-1,-1,-1,-1,-1,-1,-1,-1,-1,-1,-1,-1,-1,-1,-1,-1],"split_conditions":[1E0,4.305216E0,1.92E2,1E0,3.811788E1,1E0,1E0,1E0,1.671244E1,2.1E2,6E0,1E0,1E0,1E0,1E0,1E0,4.054023E1,4.9839787E0,9.2216583E2,1E0,1E0,1.0787991E1,2.44E2,1E0,1E0,1E0,1E0,1E0,1.9183588E1,1E0,1E0,1E0,4.054023E1,1.9193548E1,3.4882593E0,3.089998E0,5.7776537E0,1E0,1.78E2,1E0,1E0,1E0,1E0,1E0,-4.7846925E-1,4.2087234E1,3.7809155E0,1E0,8.99652E1,6.321378E2,1.36E2,4.6818027E0,5.5634513E0,1.4469645E1,1.9126923E0,1E0,1E0,1E0,2.84E2,-2.6871119E0,2.330781E0,2.3E2,3.47E2,1E0,6.0752228E1,1E0,1.6545023E1,3.25644E0,1E0,1.53E2,3.0747804E-1,1E0,-5.066164E-1,1E0,1.7436812E0,6.066367E0,1.3720718E7,-7.195997E-1,2.8808515E0,1E0,1E0,1.3137786E1,2.6813053E1,1E0,1E0,1E0,3.51E2,1.3888888E0,2.45E2,-1.8302558E-1,5.8341136E0,3.1040745E1,1.99E2,2.77E2,1E0,1E0,6.321378E2,1E0,1.02E2,1E0,1E0,1E0,8.88737E1,-2.1670456E0,9.9679575E0,1.1639472E1,5.8147006E0,8.02661E1,1E0,1.5E2,1.34E2,1E0,2.74E2,2.62E2,6.1070217E1,1.6720787E1,2.14E2,-2.6419017E0,2.2336211E0,1E0,2.4E2,1.1650971E1,1E0,9.5854095E2,1E0,1E0,5.092081E-1,1.5084504E-1,1.320771E-2,2.0314762E-2,-1.1203959E-1,-1.5736341E-2,9.242083E-2,7.4224055E-2,-1.12196185E-1,4.5027357E-2,-4.8126828E-2,3.9510734E-2,1.2268664E-1,1.3283259E-1,-1.0810552E-1,-9.7245626E-2,-1.3563937E-1,9.486382E-2,-1.9646624E-2,-2.4463297E-3,6.233697E-2,-9.8299734E-2,1.4955461E-2,-4.4389687E-2,1.1139434E-1,-2.1019712E-2,5.810526E-2,1.13693155E-1,-1.0949959E-1,4.153064E-2,-1.3792364E-1,-7.00263E-2,1.4418499E-1,8.9201376E-2,1.3614398E-3,-1.4393826E-2,3.8332786E-2,2.6956383E-2,6.561788E-2,9.557832E-2,6.396686E-2,7.842426E-2,-4.892392E-2,-7.9558045E-2,3.2093606E-3,-7.169955E-2,-1.1559054E-2,3.726253E-2,-4.8365038E-2,-1.1053015E-1,6.234346E-3,9.623384E-2,-1.01043895E-1,-1.792079E-2,1.5262909E-1,1.08887866E-1,-1.02406204E-1,2.2298394E-2,-9.391969E-2,7.91535E-2,-1.1584197E-2,-9.1446206E-2,-1.5960605E-1,2.1014346E-2,-1.7095184E-1,1.5054451E-1,1.5074469E-3,-6.1325338E-2,-2.1553164E-2,-7.120847E-2,-9.3450835E-3,-1.1507516E-1,-9.4921505E-3,-7.205006E-2,-3.467609E-2,-3.4644958E-2,1.2138913E-3,2.0578973E-2,7.610386E-2,-3.1706113E-2,4.5209005E-3,-4.2933743E-3,3.062748E-2,6.775535E-3,3.9173897E-2,-1.7796408E-1,2.9410047E-2,9.561281E-2,6.1483055E-2,-1.8927751E-2,2.1336934E-2,2.4136359E-2,6.6316575E-2,6.727546E-2,4.102815E-2,9.434452E-2,7.266121E-2,1.5054868E-1,-4.6364706E-2,-4.0839422E-2,-9.451092E-2,-8.5253395E-2,-1.2457422E-1,1.5604526E-1,-1.1174666E-1,-1.0916883E-1,-4.166187E-2,4.4636693E-2,-6.4983256E-2,5.1453765E-2,-4.191745E-2,1.0595038E-1,-9.934252E-2,-5.0831247E-2,1.2897615E-1,-7.954825E-2,-1.0882812E-1,-7.754894E-2,-2.395835E-2,-9.287513E-3,-7.906082E-2,-9.742624E-3,5.1880307E-2,-4.248449E-2,2.7812395E-2,3.8801596E-2,7.156532E-2,-8.795231E-2,1.0832957E-2],"split_indices":[152,64,215,212,98,210,212,213,18,215,122,212,213,213,210,210,85,54,28,210,212,0,215,213,213,214,211,211,29,213,214,214,85,5,45,45,50,127,215,212,211,211,214,214,12,88,100,211,124,28,215,54,89,30,99,210,178,210,215,23,22,215,215,211,98,125,18,123,167,215,11,189,12,214,27,93,42,3,20,213,211,30,66,213,213,213,215,15,215,103,24,58,215,215,212,214,28,211,215,211,211,214,124,21,93,58,24,124,212,215,215,214,215,215,75,81,215,23,45,125,215,81,145,28,125,213,102,0,0,0,0,0,0,0,0,0,0,0,0,0,0,0,0,0,0,0,0,0,0,0,0,0,0,0,0,0,0,0,0,0,0,0,0,0,0,0,0,0,0,0,0,0,0,0,0,0,0,0,0,0,0,0,0,0,0,0,0,0,0,0,0,0,0,0,0,0,0,0,0,0,0,0,0,0,0,0,0,0,0,0,0,0,0,0,0,0,0,0,0,0,0,0,0,0,0,0,0,0,0,0,0,0,0,0,0,0,0,0,0,0,0,0,0,0,0,0,0,0,0,0,0,0,0,0,0],"split_type":[0,0,0,0,0,0,0,0,0,0,0,0,0,0,0,0,0,0,0,0,0,0,0,0,0,0,0,0,0,0,0,0,0,0,0,0,0,0,0,0,0,0,0,0,0,0,0,0,0,0,0,0,0,0,0,0,0,0,0,0,0,0,0,0,0,0,0,0,0,0,0,0,0,0,0,0,0,0,0,0,0,0,0,0,0,0,0,0,0,0,0,0,0,0,0,0,0,0,0,0,0,0,0,0,0,0,0,0,0,0,0,0,0,0,0,0,0,0,0,0,0,0,0,0,0,0,0,0,0,0,0,0,0,0,0,0,0,0,0,0,0,0,0,0,0,0,0,0,0,0,0,0,0,0,0,0,0,0,0,0,0,0,0,0,0,0,0,0,0,0,0,0,0,0,0,0,0,0,0,0,0,0,0,0,0,0,0,0,0,0,0,0,0,0,0,0,0,0,0,0,0,0,0,0,0,0,0,0,0,0,0,0,0,0,0,0,0,0,0,0,0,0,0,0,0,0,0,0,0,0,0,0,0,0,0,0,0,0,0,0,0,0,0,0,0,0,0,0,0,0,0,0,0,0,0],"sum_hessian":[6.835589E5,3.060681E5,3.7749078E5,7.154232E4,2.3452578E5,2.1641592E5,1.6107486E5,3.088436E4,4.065796E4,2.2617822E5,8.347567E3,1.8439502E5,3.2020908E4,5.7807668E4,1.0326719E5,2.58799E4,5.0044595E3,2.61593E4,1.4498662E4,1.4803556E5,7.814265E4,7.548596E3,7.989715E2,3.901274E4,1.4538228E5,1.4234037E4,1.778687E4,3.746744E4,2.0340227E4,8.835073E4,1.4916459E4,2.4104627E4,1.7752723E3,4.339428E3,6.650312E2,2.3649125E4,2.5101748E3,6.79513E3,7.703532E3,1.3113211E5,1.6903459E4,3.2213318E4,4.592933E4,3.1547394E2,7.2331226E3,4.2909384E2,3.6987766E2,1.7015615E4,2.1997123E4,7.188257E4,7.349971E4,1.2497116E4,1.7369209E3,8.771495E3,9.015375E3,2.790403E4,9.563413E3,9.001161E3,1.1339066E4,6.889937E4,1.9451363E4,1.3205752E4,1.7107067E3,2.3184117E4,9.205106E2,1.2895994E3,4.8567297E2,1.8363936E3,2.5030347E3,1.1288828E1,6.537424E2,1.3307552E4,1.0341573E4,1.5663981E3,9.437768E2,4.228439E3,2.5666912E3,2.34363E3,5.3599023E3,4.101731E4,9.01148E4,7.541965E3,9.361495E3,2.4756727E4,7.456593E3,3.99243E4,6.0050273E3,2.661071E2,4.936684E1,6.071741E3,1.161381E3,2.4288036E2,1.8621349E2,3.170338E2,5.2843845E1,1.2734029E4,4.281586E3,5.677289E3,1.6319835E4,2.456988E4,4.7312688E4,3.71391E4,3.6360613E4,4.127369E3,8.369747E3,1.6099664E2,1.5759243E3,2.2987036E3,6.472791E3,5.051506E3,3.9638696E3,1.7194453E4,1.0709576E4,9.370886E3,1.925279E2,8.0932407E3,9.079202E2,8.604883E3,2.734183E3,1.1593676E3,6.774E4,1.1065785E4,8.385578E3,4.6184287E3,8.587323E3,1.5307122E3,1.7999449E2,2.1898559E4,1.2855579E3,6.791232E2,2.4138737E2,9.1888574E2,3.7071362E2,2.5795078E1,4.5987787E2,6.359002E2,1.2004934E3,1.8000872E3,7.029476E2,7.506845E0,3.781983E0,2.881719E2,3.655705E2,1.2642421E4,6.6513135E2,2.9574958E3,7.384077E3,1.2242709E3,3.421273E2,3.112081E2,6.3256866E2,2.5876035E3,1.6408353E3,2.37454E3,1.9215108E2,2.129467E3,2.1416293E2,5.0831733E3,2.7672897E2,1.94918E4,2.1525508E4,5.2926707E4,3.7188094E4,3.3333677E3,4.208597E3,6.635735E3,2.7257598E3,1.6305798E4,8.450928E3,6.067203E3,1.3893898E3,2.9690727E4,1.0233576E4,5.4009883E3,6.040392E2,2.0995241E2,5.6154675E1,4.0409092E1,8.957747E0,1.14601265E2,5.95714E3,9.6855725E2,1.9282367E2,1.1539327E2,1.27487076E2,1.5117767E2,3.5035824E1,4.513734E1,2.7189645E2,3.9108234E1,1.3735612E1,1.2314923E4,4.191071E2,1.301342E3,2.9802437E3,3.6029624E3,2.0743267E3,3.694951E2,1.595034E4,1.5927326E4,8.642556E3,3.4843957E4,1.2468728E4,3.4342844E4,2.7962593E3,1.3362671E4,2.2997941E4,3.0973958E3,1.0299734E3,1.5837008E3,6.7860464E3,8.931195E0,1.5206546E2,2.616097E2,1.3143146E3,7.2896155E2,1.569742E3,8.205373E2,5.652254E3,3.7664536E3,1.2850522E3,2.320165E3,1.6437045E3,1.6074139E4,1.1203148E3,3.6792651E3,7.030311E3,4.8460605E3,4.5248247E3,1.4535489E2,4.7172997E1,7.482915E3,6.103254E2,2.1769128E2,6.90229E2,4.7758618E2,8.127297E3,6.635083E1,2.6678323E3,7.208985E2,4.3846906E2,3.0371195E4,3.73688E4,8.969779E3,2.0960056E3,6.754481E3,1.631097E3,3.4367944E3,1.1816343E3,7.5861045E3,1.0012187E3,9.8219073E2,5.485214E2,4.6748695E1,1.3324579E2],"tree_param":{"num_deleted":"0","num_feature":"217","num_nodes":"255","size_leaf_vector":"1"}},{"base_weights":[-1.1693035E-3,2.3014316E-1,-1.885175E-1,6.4070857E-1,1.06761806E-1,7.19696E-2,-4.3577147E-1,1.014331E0,3.6425105E-1,7.397116E-2,1.0283064E0,5.1797354E-3,4.4150162E-1,-9.708901E-2,-6.0544145E-1,1.1977441E0,9.4540715E-2,5.5331767E-1,2.3898328E-2,1.9729683E-1,-2.4414665E-1,1.2006357E0,-5.244421E-1,3.1040627E-1,-7.260453E-2,2.654714E-1,5.657602E-1,1.9109812E-1,-5.7648605E-1,-7.014474E-1,-3.8534228E-2,1.2990052E0,-1.2075767E-1,3.4236982E-1,-7.376388E-1,6.358456E-1,-2.4154386E-1,3.736641E-1,-2.801135E-1,1.3987508E-1,5.6211364E-1,7.3418066E-2,-4.683151E-1,-5.8580655E-1,1.2829316E0,7.5562276E-2,-1.2690028E0,9.852899E-1,-1.7647684E-1,-2.739312E-1,9.997711E-2,1.5785669E-1,4.3237475E-1,2.0125473E-1,6.0002357E-1,5.7101905E-1,-8.73212E-1,-7.921265E-1,-4.0083024E-1,-5.171148E-1,-8.9727485E-1,1.5225595E-1,-2.742467E-1,1.3736633E0,9.070628E-2,1.6924329E-1,-9.8843765E-1,-1.9134063E-1,5.764918E-1,-9.402978E-1,7.7399457E-1,8.68668E-1,4.151207E-1,-7.0599455E-1,5.4044485E-1,6.270126E-2,8.959553E-1,-3.7737262E-1,1.0853974E0,3.8470426E-1,1.733364E-2,3.622718E-1,7.312473E-1,2.759461E-1,-7.712775E-1,-5.7134056E-1,2.2804797E-1,-2.2342303E-1,-1.1792238E0,1.3243165E0,-6.424196E-1,2.154327E-1,-1.5614766E0,-8.054024E-1,-1.4770354E0,1.3894613E0,-2.8371537E-1,-6.021738E-1,-1.2844148E-1,-4.6471566E-1,-1.5952359E-1,-2.7128132E-2,2.7747056E-1,-4.4549625E-2,2.7936938E-1,2.2915839E-1,5.1688784E-1,1.2140217E-1,7.3979485E-1,6.904701E-1,4.7070736E-1,1.3118902E0,-6.922608E-1,-9.049924E-1,8.807544E-1,-8.9921886E-1,-3.1966764E-1,-2.1337517E-1,-7.678003E-1,-1.7311133E-1,-6.564768E-1,-4.091712E-2,-9.359458E-1,-6.7804223E-3,3.6382732E-1,-3.4643558E-1,3.517929E-1,1.4372586E-1,-1.8294713E-2,-3.9243724E-2,1.0306003E-1,7.6798E-2,-1.016944E-2,3.052752E-2,-1.20701805E-1,3.2260522E-2,-7.148265E-2,3.984222E-2,1.1086567E-1,-1.7272597E-2,-1.1533771E-1,1.5318117E-1,-2.6775498E-2,9.4740145E-2,-4.429595E-3,1.0981464E-2,7.312824E-2,-9.11876E-2,5.8043855E-3,-3.950049E-2,1.01401284E-1,4.64464E-2,-2.043652E-2,1.0580646E-1,-9.770388E-2,-4.5767087E-2,1.3231651E-1,3.45304E-2,1.5992641E-1,7.91851E-2,1.227772E-3,-2.0327091E-2,2.9331226E-2,5.5311825E-2,1.8149054E-2,6.536115E-2,9.222322E-2,5.998232E-2,-7.1225785E-2,-9.178206E-2,2.9307444E-2,-7.029182E-2,-1.37366345E-2,3.2933127E-2,-4.5075137E-2,3.2923397E-2,-6.748296E-2,-1.325721E-1,-7.1466033E-4,1.4296453E-1,7.779406E-2,7.53695E-2,-1.1637379E-1,-3.801771E-2,4.8701573E-2,-1.6930006E-1,6.1323796E-3,8.360292E-3,-1.0657773E-1,-1.6582073E-1,-1.0620173E-1,1.434718E-1,-1.21001E-2,-1.0183441E-1,-2.159324E-2,-7.623479E-2,-1.44549785E-2,-8.57798E-2,-1.0501517E-2,-6.592435E-2,-1.9174675E-2,-1.8740948E-2,4.7281094E-2,-6.27821E-2,1.8711498E-2,9.7302515E-3,4.4029616E-2,-2.4615502E-2,1.6153757E-2,-5.0090063E-2,3.045841E-2,8.247874E-2,1.7511718E-2,6.6083156E-2,4.1138988E-2,-2.6460232E-3,3.774983E-2,-5.5858947E-2,8.48025E-2,5.925883E-2,8.1872664E-2,5.39941E-2,2.359126E-2,1.4348337E-1,-3.926874E-2,-3.876997E-2,-9.204397E-2,-5.273499E-2,-1.0457017E-1,1.4681534E-1,-1.0175146E-1,-9.492638E-2,-3.652508E-2,-4.7624473E-2,7.477795E-2,-4.518665E-2,-2.0459816E-3,3.289611E-2,-8.5132405E-2,2.988022E-2,-2.8791023E-2,-7.6921664E-2,-3.573532E-2,2.6247695E-2,-9.79818E-2,-8.469354E-2,-1.1620056E-1,-9.7255325E-3,5.1683586E-2,1.04620075E-2,4.7816444E-2,-4.2255558E-2,2.3732895E-2,4.0307283E-2,-5.4418553E-2],"categories":[],"categories_nodes":[],"categories_segments":[],"categories_sizes":[],"default_left":[0,0,0,0,0,0,0,0,0,0,0,0,0,0,0,0,0,0,0,0,0,0,0,0,0,0,0,0,0,0,0,0,0,0,0,0,0,0,0,0,0,0,0,0,0,0,0,0,0,0,0,0,0,0,0,0,0,0,0,0,0,0,0,0,0,0,0,0,0,0,0,0,0,0,0,0,0,0,0,0,0,0,0,0,0,0,0,0,0,0,0,0,0,0,0,0,0,0,0,0,0,0,0,0,0,0,0,0,0,0,0,0,0,0,0,0,0,0,0,0,0,0,0,0,0,0,0,0,0,0,0,0,0,0,0,0,0,0,0,0,0,0,0,0,0,0,0,0,0,0,0,0,0,0,0,0,0,0,0,0,0,0,0,0,0,0,0,0,0,0,0,0,0,0,0,0,0,0,0,0,0,0,0,0,0,0,0,0,0,0,0,0,0,0,0,0,0,0,0,0,0,0,0,0,0,0,0,0,0,0,0,0,0,0,0,0,0,0,0,0,0,0,0,0,0,0,0,0,0,0,0,0,0,0,0,0,0,0,0,0,0,0,0,0,0,0,0,0,0,0,0,0,0,0,0],"id":5,"left_children":[1,3,5,7,9,11,13,15,17,19,21,23,25,27,29,31,33,35,37,39,41,43,45,47,49,51,53,55,57,59,61,63,65,67,69,71,73,75,77,79,81,83,85,87,89,91,93,95,97,99,101,103,105,107,109,111,113,115,117,119,121,123,125,127,129,131,133,135,137,139,141,143,145,147,149,151,153,155,157,159,161,163,165,167,169,171,173,175,177,179,181,183,185,187,189,191,193,195,197,199,201,203,205,207,209,211,213,215,217,219,221,223,225,227,229,231,233,235,237,239,241,243,245,247,249,251,253,-1,-1,-1,-1,-1,-1,-1,-1,-1,-1,-1,-1,-1,-1,-1,-1,-1,-1,-1,-1,-1,-1,-1,-1,-1,-1,-1,-1,-1,-1,-1,-1,-1,-1,-1,-1,-1,-1,-1,-1,-1,-1,-1,-1,-1,-1,-1,-1,-1,-1,-1,-1,-1,-1,-1,-1,-1,-1,-1,-1,-1,-1,-1,-1,-1,-1,-1,-1,-1,-1,-1,-1,-1,-1,-1,-1,-1,-1,-1,-1,-1,-1,-1,-1,-1,-1,-1,-1,-1,-1,-1,-1,-1,-1,-1,-1,-1,-1,-1,-1,-1,-1,-1,-1,-1,-1,-1,-1,-1,-1,-1,-1,-1,-1,-1,-1,-1,-1,-1,-1,-1,-1,-1,-1,-1,-1,-1,-1],"loss_changes":[2.9234117E4,1.5291733E4,2.4005398E4,7.2043477E3,7.0141416E3,4.479665E3,1.0987934E4,5.0040625E3,2.5799868E3,8.793939E3,2.135379E3,3.64967E3,6.074155E2,8.817794E3,6.9335586E3,3.3023047E3,1.01806134E3,1.6911313E3,1.5229437E3,3.3836396E3,4.4579507E3,1.0569922E3,3.5674268E2,1.0258609E4,4.2565015E3,2.0642664E2,2.0314453E2,1.611956E4,9.070386E2,3.931668E3,8.298948E2,2.0716758E3,4.4464737E2,4.7542743E2,3.4848773E2,1.1993066E3,8.818404E2,1.0815555E3,1.01845886E3,4.187194E3,7.419336E2,4.4337065E3,2.6338745E3,6.7758354E1,5.486162E2,1.0230259E2,3.1980652E1,6.7114453E3,3.707243E2,1.2340435E3,1.4881519E3,1.7207364E2,7.717163E1,6.0123093E1,1.7344482E2,2.7496994E4,5.861616E2,5.4359326E2,9.08376E2,2.6904072E3,1.7491992E3,3.4317517E2,3.733089E2,2.1418633E3,6.087157E2,2.1512024E2,1.25899994E2,3.1284964E2,2.4966516E2,1.6312177E2,1.07408516E2,8.168281E2,1.1572854E3,2.396485E2,4.0174982E2,4.48337E2,7.56676E2,9.7815594E2,1.928498E2,7.0590527E3,5.6629907E3,3.4733484E2,1.7516895E2,6.691345E3,7.82313E2,1.8258174E3,3.256604E2,5.0242916E1,2.0572922E1,3.845088E2,1.07855E2,6.679918E1,7.7164383E0,2.6739754E1,1.4788025E1,6.7871484E2,1.5702255E2,1.3454285E2,2.7833563E2,1.1252324E3,6.2351447E2,4.947114E3,8.0740137E2,1.0918075E2,8.6309326E1,4.2440216E1,4.7773254E1,4.6353416E1,2.6337433E1,1.0893262E2,9.943005E1,3.8819316E3,7.5408105E2,5.4629297E2,2.1222417E2,2.3356982E2,3.3339468E2,4.0238245E2,4.0962842E2,8.769497E2,1.3464141E3,6.512292E2,1.01498047E3,2.7602258E2,1.2961084E2,3.291374E2,3.969732E1,0E0,0E0,0E0,0E0,0E0,0E0,0E0,0E0,0E0,0E0,0E0,0E0,0E0,0E0,0E0,0E0,0E0,0E0,0E0,0E0,0E0,0E0,0E0,0E0,0E0,0E0,0E0,0E0,0E0,0E0,0E0,0E0,0E0,0E0,0E0,0E0,0E0,0E0,0E0,0E0,0E0,0E0,0E0,0E0,0E0,0E0,0E0,0E0,0E0,0E0,0E0,0E0,0E0,0E0,0E0,0E0,0E0,0E0,0E0,0E0,0E0,0E0,0E0,0E0,0E0,0E0,0E0,0E0,0E0,0E0,0E0,0E0,0E0,0E0,0E0,0E0,0E0,0E0,0E0,0E0,0E0,0E0,0E0,0E0,0E0,0E0,0E0,0E0,0E0,0E0,0E0,0E0,0E0,0E0,0E0,0E0,0E0,0E0,0E0,0E0,0E0,0E0,0E0,0E0,0E0,0E0,0E0,0E0,0E0,0E0,0E0,0E0,0E0,0E0,0E0,0E0,0E0,0E0,0E0,0E0,0E0,0E0,0E0,0E0,0E0,0E0,0E0,0E0],"parents":[2147483647,0,0,1,1,2,2,3,3,4,4,5,5,6,6,7,7,8,8,9,9,10,10,11,11,12,12,13,13,14,14,15,15,16,16,17,17,18,18,19,19,20,20,21,21,22,22,23,23,24,24,25,25,26,26,27,27,28,28,29,29,30,30,31,31,32,32,33,33,34,34,35,35,36,36,37,37,38,38,39,39,40,40,41,41,42,42,43,43,44,44,45,45,46,46,47,47,48,48,49,49,50,50,51,51,52,52,53,53,54,54,55,55,56,56,57,57,58,58,59,59,60,60,61,61,62,62,63,63,64,64,65,65,66,66,67,67,68,68,69,69,70,70,71,71,72,72,73,73,74,74,75,75,76,76,77,77,78,78,79,79,80,80,81,81,82,82,83,83,84,84,85,85,86,86,87,87,88,88,89,89,90,90,91,91,92,92,93,93,94,94,95,95,96,96,97,97,98,98,99,99,100,100,101,101,102,102,103,103,104,104,105,105,106,106,107,107,108,108,109,109,110,110,111,111,112,112,113,113,114,114,115,115,116,116,117,117,118,118,119,119,120,120,121,121,122,122,123,123,124,124,125,125,126,126],"right_children":[2,4,6,8,10,12,14,16,18,20,22,24,26,28,30,32,34,36,38,40,42,44,46,48,50,52,54,56,58,60,62,64,66,68,70,72,74,76,78,80,82,84,86,88,90,92,94,96,98,100,102,104,106,108,110,112,114,116,118,120,122,124,126,128,130,132,134,136,138,140,142,144,146,148,150,152,154,156,158,160,162,164,166,168,170,172,174,176,178,180,182,184,186,188,190,192,194,196,198,200,202,204,206,208,210,212,214,216,218,220,222,224,226,228,230,232,234,236,238,240,242,244,246,248,250,252,254,-1,-1,-1,-1,-1,-1,-1,-1,-1,-1,-1,-1,-1,-1,-1,-1,-1,-1,-1,-1,-1,-1,-1,-1,-1,-1,-1,-1,-1,-1,-1,-1,-1,-1,-1,-1,-1,-1,-1,-1,-1,-1,-1,-1,-1,-1,-1,-1,-1,-1,-1,-1,-1,-1,-1,-1,-1,-1,-1,-1,-1,-1,-1,-1,-1,-1,-1,-1,-1,-1,-1,-1,-1,-1,-1,-1,-1,-1,-1,-1,-1,-1,-1,-1,-1,-1,-1,-1,-1,-1,-1,-1,-1,-1,-1,-1,-1,-1,-1,-1,-1,-1,-1,-1,-1,-1,-1,-1,-1,-1,-1,-1,-1,-1,-1,-1,-1,-1,-1,-1,-1,-1,-1,-1,-1,-1,-1,-1],"split_conditions":[1E0,4.305216E0,1.75E2,1E0,3.811788E1,1E0,1E0,1E0,1.671244E1,2.27E2,6E0,1E0,1E0,1E0,1E0,1E0,3.3240414E1,4.9839787E0,9.2216583E2,1E0,1E0,1.0787991E1,2.44E2,1E0,1E0,1E0,1E0,1E0,1.9183588E1,2.27E2,2.43E2,1E0,6E0,1.5407408E1,2.5833333E0,4.8999095E0,5.7776537E0,1E0,2E0,1E0,1E0,1E0,1E0,2.16E2,1.1469967E1,3.043657E1,1E0,1E0,2.8419E2,1.0768093E1,1E0,8.367831E0,1.0082661E1,1E0,1.34E2,1E0,1E0,1E0,2.55E2,6.519714E-1,-2.632184E0,7.410068E5,1E0,1E0,2.4636219E0,-2.6013212E0,3.26E2,3.7792E0,1E0,1.7412203E1,6.923737E0,3.0034279E1,1.1230197E1,1E0,1.7436812E0,5.9693055E0,1.3720718E7,2.8808515E0,1.7764233E1,1E0,1E0,1.2307693E0,1E0,1E0,1E0,1E0,3.51E2,2.8758837E-2,1E0,-4.7846925E-1,1.35E2,3.0524885E1,1E0,-3.9823675E-1,2E0,1E0,1.02E2,1E0,1.02E2,1E0,1E0,1.3911701E1,1.4681047E0,4.794537E0,1.02E2,4.414219E0,1.194902E1,9.499376E0,3.413267E0,2.1239073E0,5.151515E-1,1E0,2.84E2,2.16E2,6.1070217E1,1E0,1.6590311E1,1.4942362E0,-2.6419017E0,-2.356996E0,1E0,-4.5251074E-1,3.13E2,1E0,4.794537E0,1E0,3E0,1.4372586E-1,-1.8294713E-2,-3.9243724E-2,1.0306003E-1,7.6798E-2,-1.016944E-2,3.052752E-2,-1.20701805E-1,3.2260522E-2,-7.148265E-2,3.984222E-2,1.1086567E-1,-1.7272597E-2,-1.1533771E-1,1.5318117E-1,-2.6775498E-2,9.4740145E-2,-4.429595E-3,1.0981464E-2,7.312824E-2,-9.11876E-2,5.8043855E-3,-3.950049E-2,1.01401284E-1,4.64464E-2,-2.043652E-2,1.0580646E-1,-9.770388E-2,-4.5767087E-2,1.3231651E-1,3.45304E-2,1.5992641E-1,7.91851E-2,1.227772E-3,-2.0327091E-2,2.9331226E-2,5.5311825E-2,1.8149054E-2,6.536115E-2,9.222322E-2,5.998232E-2,-7.1225785E-2,-9.178206E-2,2.9307444E-2,-7.029182E-2,-1.37366345E-2,3.2933127E-2,-4.5075137E-2,3.2923397E-2,-6.748296E-2,-1.325721E-1,-7.1466033E-4,1.4296453E-1,7.779406E-2,7.53695E-2,-1.1637379E-1,-3.801771E-2,4.8701573E-2,-1.6930006E-1,6.1323796E-3,8.360292E-3,-1.0657773E-1,-1.6582073E-1,-1.0620173E-1,1.434718E-1,-1.21001E-2,-1.0183441E-1,-2.159324E-2,-7.623479E-2,-1.44549785E-2,-8.57798E-2,-1.0501517E-2,-6.592435E-2,-1.9174675E-2,-1.8740948E-2,4.7281094E-2,-6.27821E-2,1.8711498E-2,9.7302515E-3,4.4029616E-2,-2.4615502E-2,1.6153757E-2,-5.0090063E-2,3.045841E-2,8.247874E-2,1.7511718E-2,6.6083156E-2,4.1138988E-2,-2.6460232E-3,3.774983E-2,-5.5858947E-2,8.48025E-2,5.925883E-2,8.1872664E-2,5.39941E-2,2.359126E-2,1.4348337E-1,-3.926874E-2,-3.876997E-2,-9.204397E-2,-5.273499E-2,-1.0457017E-1,1.4681534E-1,-1.0175146E-1,-9.492638E-2,-3.652508E-2,-4.7624473E-2,7.477795E-2,-4.518665E-2,-2.0459816E-3,3.289611E-2,-8.5132405E-2,2.988022E-2,-2.8791023E-2,-7.6921664E-2,-3.573532E-2,2.6247695E-2,-9.79818E-2,-8.469354E-2,-1.1620056E-1,-9.7255325E-3,5.1683586E-2,1.04620075E-2,4.7816444E-2,-4.2255558E-2,2.3732895E-2,4.0307283E-2,-5.4418553E-2],"split_indices":[152,64,215,212,98,210,212,213,18,215,122,212,213,213,210,210,48,54,28,214,212,0,215,213,213,211,212,211,29,215,215,211,126,5,17,71,50,127,125,212,213,210,214,215,45,49,212,211,7,32,211,33,93,205,215,210,178,211,215,4,23,42,214,214,20,23,215,123,167,78,57,88,49,214,27,84,42,20,59,213,213,15,210,211,214,213,215,2,214,12,215,60,210,25,112,214,215,211,215,211,214,30,99,72,215,64,87,54,101,99,105,214,215,215,75,210,81,27,23,21,211,12,215,214,54,125,112,0,0,0,0,0,0,0,0,0,0,0,0,0,0,0,0,0,0,0,0,0,0,0,0,0,0,0,0,0,0,0,0,0,0,0,0,0,0,0,0,0,0,0,0,0,0,0,0,0,0,0,0,0,0,0,0,0,0,0,0,0,0,0,0,0,0,0,0,0,0,0,0,0,0,0,0,0,0,0,0,0,0,0,0,0,0,0,0,0,0,0,0,0,0,0,0,0,0,0,0,0,0,0,0,0,0,0,0,0,0,0,0,0,0,0,0,0,0,0,0,0,0,0,0,0,0,0,0],"split_type":[0,0,0,0,0,0,0,0,0,0,0,0,0,0,0,0,0,0,0,0,0,0,0,0,0,0,0,0,0,0,0,0,0,0,0,0,0,0,0,0,0,0,0,0,0,0,0,0,0,0,0,0,0,0,0,0,0,0,0,0,0,0,0,0,0,0,0,0,0,0,0,0,0,0,0,0,0,0,0,0,0,0,0,0,0,0,0,0,0,0,0,0,0,0,0,0,0,0,0,0,0,0,0,0,0,0,0,0,0,0,0,0,0,0,0,0,0,0,0,0,0,0,0,0,0,0,0,0,0,0,0,0,0,0,0,0,0,0,0,0,0,0,0,0,0,0,0,0,0,0,0,0,0,0,0,0,0,0,0,0,0,0,0,0,0,0,0,0,0,0,0,0,0,0,0,0,0,0,0,0,0,0,0,0,0,0,0,0,0,0,0,0,0,0,0,0,0,0,0,0,0,0,0,0,0,0,0,0,0,0,0,0,0,0,0,0,0,0,0,0,0,0,0,0,0,0,0,0,0,0,0,0,0,0,0,0,0,0,0,0,0,0,0,0,0,0,0,0,0,0,0,0,0,0,0],"sum_hessian":[6.745884E5,3.0187412E5,3.7271422E5,6.9753414E4,2.3212072E5,1.8150083E5,1.912134E5,2.9661545E4,4.0091863E4,2.2414722E5,7.9735054E3,1.5371934E5,2.7781477E4,6.382129E4,1.2739211E5,2.472966E4,4.9318857E3,2.5773426E4,1.431844E4,1.6152795E5,6.261926E4,7.1773877E3,7.961178E2,3.1217084E4,1.22502266E5,1.1498484E4,1.6282992E4,3.9860535E4,2.3960756E4,1.0894223E5,1.8449885E4,2.2965908E4,1.7637523E3,3.801075E3,1.1308105E3,2.334952E4,2.4239053E3,6.657976E3,7.6604644E3,1.3956358E5,2.196438E4,2.591232E4,3.6706938E4,3.155401E2,6.8618477E3,4.4184998E2,3.5426785E2,1.3081864E4,1.813522E4,5.654177E4,6.596049E4,6.993293E3,4.505192E3,1.4002646E3,1.4882727E4,2.9375463E4,1.048507E4,1.0753013E4,1.3207743E4,5.61219E4,5.282033E4,1.0196971E4,8.252915E3,2.162921E4,1.336696E3,1.3231361E3,4.406162E2,1.159108E3,2.641967E3,9.977958E2,1.3301483E2,1.13605E4,1.1989019E4,1.5208269E3,9.030784E2,4.174684E3,2.4832922E3,7.152473E3,5.0799088E2,4.6551895E4,9.301168E4,1.0071072E4,1.1893309E4,2.0902088E4,5.010233E3,3.197645E4,4.7304907E3,1.9761505E2,1.1792505E2,6.718069E3,1.4377887E2,4.086696E2,3.318038E1,1.1274929E2,2.4151855E2,9.921674E3,3.1601904E3,1.8365295E3,1.629869E4,2.1193568E4,3.53482E4,3.843699E4,2.7523506E4,2.6238896E3,4.3694033E3,1.325464E3,3.179728E3,1.221584E3,1.786807E2,8.752419E3,6.1303086E3,1.8516236E4,1.0859227E4,1.0299422E4,1.8564903E2,8.764545E3,1.9884683E3,8.744205E3,4.463538E3,1.6182132E4,3.9939766E4,2.2823564E3,5.0537973E4,5.822319E3,4.3746514E3,7.4004585E3,8.5245667E2,2.0780383E4,8.488283E2,8.836362E2,4.530598E2,4.1106577E2,9.120704E2,6.3570118E1,3.770461E2,5.8527075E2,5.738373E2,1.982195E3,6.597721E2,2.1759132E2,7.8020447E2,7.645619E1,5.6558636E1,1.0458492E4,9.0200854E2,6.100591E3,5.888428E3,1.1977015E3,3.2312537E2,3.0363428E2,5.9944415E2,1.6663794E3,2.5083044E3,2.2862827E3,1.9700957E2,6.831363E3,3.211106E2,2.0954251E2,2.9844836E2,2.2238219E4,2.4313674E4,5.1692008E4,4.1319676E4,4.897149E3,5.173924E3,8.462235E3,3.4310732E3,1.5743161E4,5.158927E3,4.4041343E3,6.0609875E2,2.4536066E4,7.440383E3,4.117196E3,6.132948E2,8.908707E1,1.0852799E2,1.04590195E2,1.3334852E1,5.6295806E3,1.0884883E3,3.884872E1,1.0493015E2,1.2773461E2,2.80935E2,3.0612774E1,2.5676074E0,2.5849264E1,8.6900024E1,1.6395477E2,7.756378E1,9.633145E3,2.885298E2,2.645849E2,2.8956057E3,1.3593933E3,4.7713626E2,5.049923E2,1.5793698E4,1.2373162E4,8.820406E3,3.385654E4,1.4916626E3,1.01039E4,2.8333086E4,1.3067447E4,1.445606E4,1.3261705E3,1.2977191E3,1.3559758E2,4.2338057E3,1.07882706E2,1.2175813E3,1.34037E3,1.839358E3,7.7558014E2,4.4600388E2,1.3108016E1,1.6557268E2,4.970393E3,3.7820256E3,4.732302E3,1.3980067E3,1.7270883E4,1.2453534E3,4.6534497E3,6.2057773E3,2.7984094E3,7.501012E3,1.4212357E2,4.3525455E1,8.012076E3,7.5246857E2,1.7350696E3,2.5339871E2,3.909011E3,4.835194E3,3.154496E2,4.1480884E3,3.1656438E3,1.3016487E4,2.9004725E4,1.0935043E4,1.7260469E3,5.563096E2,3.626731E4,1.4270664E4,4.9658975E3,8.564217E2,1.3401969E3,3.0344546E3,6.5472783E3,8.531802E2,8.0734955E2,4.5107136E1],"tree_param":{"num_deleted":"0","num_feature":"217","num_nodes":"255","size_leaf_vector":"1"}},{"base_weights":[1.4583521E-3,2.1133791E-1,-1.6924949E-1,5.926019E-1,9.866411E-2,7.012873E-2,-3.9986423E-1,9.608592E-1,3.2829496E-1,5.9187625E-2,7.9362077E-1,1.01063065E-2,4.0588892E-1,-9.155421E-2,-5.519265E-1,1.1397593E0,9.844839E-2,1.901063E-1,7.565587E-1,2.5788492E-1,-1.3168354E-1,2.7982372E-1,1.3117771E0,3.014401E-1,-6.3344486E-2,2.585743E-1,5.1111764E-1,1.7309642E-1,-5.1644E-1,-6.426931E-1,-2.8445892E-2,1.2398353E0,-1.0790186E-1,3.3418727E-1,-7.193578E-1,2.958502E-1,-4.7842124E-1,5.893937E-1,9.5580554E-1,2.0476176E-1,6.606046E-1,1.2206504E-1,-2.9167375E-1,6.541591E-1,-4.7536764E-1,6.645339E-2,1.370277E0,9.397443E-1,-1.3575815E-1,-2.3505904E-1,8.426694E-2,-7.7207625E-2,3.0674413E-1,4.6223867E-1,7.6098454E-1,5.3394914E-1,-8.164047E-1,-7.4402845E-1,-3.4940213E-1,-7.4716365E-1,-3.2627863E-1,1.9467846E-1,-2.0006457E-1,1.3001026E0,-1.6286461E-1,-9.621157E-1,1.664304E-1,1.2876937E-1,8.415315E-1,-8.966072E-1,6.1179024E-1,-8.249395E-3,6.3093954E-1,-6.127478E-1,1.409629E0,7.509325E-1,2.8206214E-1,9.8052704E-1,-3.6052534E-1,3.2930672E-1,4.096913E-2,4.800066E-1,7.901609E-1,3.133553E-1,-4.5094985E-1,-4.452465E-1,1.5714036E-1,1.4155518E-1,1.0268011E0,3.1085366E-1,-6.433632E-1,6.6881716E-1,-7.8876007E-1,3.4457943E-1,1.4061587E0,1.3302006E0,-1.926395E-1,-5.110883E-1,-9.372777E-2,-2.6389176E-1,4.1780502E-1,4.544291E-2,5.863357E-1,3.5811344E-1,-1.8542771E-1,1.3166523E-1,3.8746098E-1,1.2155844E-1,5.1098657E-1,1.042431E0,7.051705E-1,1.2534392E0,-6.4046687E-1,7.875754E-1,-8.484696E-1,-8.4382844E-1,-2.7358797E-1,-1.7382233E-1,-7.0008683E-1,-5.739827E-1,-8.8586605E-1,-5.912042E-1,-1.8216427E-1,3.9010655E-2,4.1463524E-1,-1.5339234E-1,-9.941728E-1,1.3786422E-1,1.1676378E-2,1.4706294E-2,-1.1132324E-1,-1.13610744E-1,3.3205558E-2,3.702074E-2,-7.360986E-2,3.3759035E-2,-2.727955E-2,-1.6355175E-1,9.0699874E-2,-9.330201E-2,1.4989391E-1,1.392291E-1,-4.5717057E-2,3.2466363E-2,-2.858491E-2,6.9522776E-2,-5.0591636E-2,-2.450717E-2,-1.11667596E-1,2.0865288E-2,1.4157006E-1,5.4977935E-2,9.810257E-2,3.9626867E-2,-4.4024136E-2,1.07259385E-1,7.115648E-2,-1.3901012E-1,1.8380968E-2,-2.1895574E-2,3.5890907E-2,3.6571153E-2,-9.019838E-3,1.6512645E-2,5.684957E-2,9.9850535E-2,6.84469E-2,7.8315295E-2,-3.8122356E-2,-6.745351E-2,1.9515656E-2,-5.812287E-2,-8.396852E-3,-5.1118475E-3,5.0926782E-2,-1.1010333E-2,1.7794536E-1,1.3315214E-1,4.204128E-2,-5.4716326E-2,5.0023627E-2,-7.3414944E-2,1.8381571E-2,-7.882409E-3,7.6847754E-2,4.2002494E-3,